51 200
0.133970
-0.110069
-0.086512
-0.134039
-0.129343
0.116221
-0.122464
-0.060712
0.044997
-0.046233
-0.066881
0.120323
-0.028188
-0.047587
0.044000
0.084215
0.026418
-0.095119
0.078704
0.049453
0.119943
0.111205
-0.009939
-0.121425
-0.097844
-0.090183
0.119462
-0.017338
-0.089208
-0.112744
0.094617
0.044362
-0.090807
0.034099
-0.039591
0.106249
-0.045129
-0.001163
0.016999
0.118582
0.000310
0.127342
0.125893
0.037231
0.103297
0.072149
0.069540
0.128675
-0.067107
0.075939
0.058083
0.128852
-0.032143
-0.107387
-0.100465
0.039615
0.024141
-0.061991
-0.056291
0.139102
-0.012112
0.065818
0.059063
0.042543
-0.050345
-0.117538
0.073234
0.087327
0.039382
0.057784
-0.134040
-0.043032
0.041979
0.036338
0.097657
0.055700
-0.002702
0.077054
-0.073329
-0.101140
-0.027931
0.022556
0.126542
0.117080
-0.005252
-0.002418
-0.043156
0.122811
0.045030
-0.020635
0.003582
-0.086213
0.113739
-0.048253
0.086032
0.117626
0.102151
-0.124123
0.010026
0.140047
0.073403
-0.027323
0.069285
0.063391
-0.089461
-0.012274
0.133604
0.076525
-0.035044
0.023733
0.025873
0.110036
-0.107395
0.001331
0.048915
0.066016
-0.086524
-0.013381
-0.102856
0.139675
0.056931
0.078037
0.096321
-0.099208
0.032166
-0.125430
-0.123718
0.059925
-0.039405
0.011469
-0.086685
-0.064243
-0.127326
0.013779
-0.099624
0.022114
0.045666
-0.035267
-0.049752
-0.036912
-0.001382
0.083460
0.034508
0.104416
0.060031
0.054763
-0.063517
-0.002989
-0.104563
-0.005248
0.024511
0.040308
0.014587
-0.107614
0.089854
0.072457
0.105426
0.056117
0.067207
-0.036851
-0.065555
0.072666
0.027899
-0.063598
-0.115915
-0.107525
-0.033820
-0.050380
0.102157
0.104896
-0.133991
0.026710
-0.000045
-0.040108
-0.099163
-0.090628
0.108125
0.041058
0.025290
-0.095013
-0.004065
0.137441
0.083018
0.094914
0.084116
0.079480
-0.050539
0.059193
-0.026274
0.006090
-0.104858
0.102037
0.104085
-0.023538
0.084907
-0.082689
-0.062613
0.096381
-0.123066
-0.057909
-0.017616
0.046630
-0.060463
-0.040056
-0.040809
-0.113737
-0.126728
0.013840
-0.010201
-0.008355
-0.054852
-0.027111
0.044370
-0.124184
0.048908
-0.110212
0.123135
0.068171
0.111167
0.080284
-0.044898
0.003445
-0.099654
0.137358
-0.131158
0.011009
0.081165
0.121127
0.041560
-0.093023
-0.051984
-0.118233
-0.085888
-0.044939
-0.069422
0.104561
-0.052263
-0.106996
0.129666
-0.090306
0.057935
0.044200
0.057107
-0.087747
0.124523
-0.097033
-0.087581
0.012995
0.098928
0.034722
0.113156
0.001158
-0.028537
0.053168
-0.013471
-0.115510
0.081469
0.108248
0.061553
0.067798
0.033437
0.087451
-0.065743
0.050971
0.012769
0.129362
-0.134514
0.048759
-0.052203
0.081327
0.122264
-0.038259
-0.063550
0.040692
0.069188
0.079041
0.097460
0.135314
-0.008076
0.106420
-0.074365
0.016423
-0.026701
0.131088
-0.017516
0.013063
0.029347
0.044146
0.031547
-0.104762
0.129979
-0.089229
0.051307
0.023402
-0.135405
-0.086178
-0.004502
-0.028496
0.097388
0.111343
-0.086321
0.037275
-0.100927
0.014260
0.125662
-0.124305
0.118754
-0.138305
0.093050
-0.076148
-0.015552
0.112144
-0.005859
0.059351
-0.006793
0.069904
0.112639
-0.065649
0.119805
0.070568
-0.081417
-0.067011
0.098307
-0.086713
-0.088132
-0.032254
-0.023791
-0.114017
0.109957
0.004740
0.118601
0.104115
0.004513
-0.051342
0.008796
0.016043
0.087636
0.033797
0.064756
-0.007439
-0.096078
-0.067353
0.027587
-0.046745
0.119144
0.132147
-0.000812
0.016537
0.100297
0.092972
-0.043696
0.091613
0.126102
-0.051761
0.107820
0.098545
-0.120316
0.101814
-0.097242
0.075894
-0.105232
0.016974
0.047661
0.132312
-0.053506
0.018138
0.039404
0.114568
0.041166
0.005624
-0.130621
-0.109526
-0.092688
0.124058
0.050456
-0.041051
0.087918
-0.038193
0.007311
0.064505
-0.125227
-0.052880
-0.021156
-0.055205
-0.116333
0.107851
-0.109731
-0.077956
0.131487
0.073898
0.045176
0.116987
-0.077466
0.123410
-0.123317
-0.104783
-0.045409
-0.094476
0.076481
0.136275
0.015621
-0.125632
0.077301
-0.119502
-0.130624
-0.089857
-0.116311
0.079862
-0.005624
0.012395
0.121373
0.018817
0.051001
0.111792
-0.117619
0.088591
-0.074055
-0.094926
-0.066937
0.124294
-0.101140
-0.014488
0.042605
-0.134699
-0.073449
0.113131
0.118333
0.066996
0.055196
-0.075624
-0.026521
-0.025878
-0.077322
-0.096510
0.074083
-0.072741
-0.048266
-0.066123
0.082135
-0.005936
-0.039049
0.033481
0.105763
-0.027367
-0.056261
-0.051798
0.051585
0.106538
-0.116090
-0.092162
-0.138446
-0.060098
-0.119689
-0.086475
0.053858
0.014837
-0.065223
0.020204
-0.006936
-0.011072
-0.035782
-0.044249
0.136674
-0.013411
0.005231
-0.121454
0.105730
-0.109153
0.113350
-0.134515
-0.132733
0.063647
0.078795
0.060883
0.081249
0.127743
0.031762
-0.067381
-0.092260
0.022194
0.085560
-0.067730
-0.072921
0.098196
-0.130713
0.132153
0.035344
-0.071003
0.031727
-0.115553
-0.080709
0.048712
0.109720
-0.050021
-0.050100
-0.043048
0.048448
0.099372
0.040105
-0.034965
-0.117641
0.039598
-0.001517
-0.009229
-0.071063
0.113448
0.049590
-0.078755
0.067852
0.100411
0.044395
-0.094297
-0.105670
0.016947
0.061617
0.113765
0.002859
-0.006787
-0.022223
-0.002199
0.115638
0.139596
0.120812
0.129018
0.052934
0.075959
-0.070198
-0.122341
-0.132607
-0.089298
-0.102783
0.064082
0.031052
0.123773
0.064536
0.128066
0.016532
0.110160
0.137733
0.022568
-0.020988
-0.020522
-0.078873
-0.131544
0.002573
0.061956
-0.041710
-0.062478
-0.098894
0.045257
0.110758
-0.107362
0.133925
-0.074240
-0.116218
-0.113603
-0.133825
0.126677
-0.061058
-0.099941
-0.017471
-0.034831
0.043338
-0.092123
-0.132432
-0.098729
-0.123775
0.017307
0.009291
-0.008091
0.037965
0.025040
0.058124
-0.109619
0.084802
0.015512
0.010806
0.114551
-0.121616
0.138472
0.025604
0.126305
0.055932
-0.075791
-0.104587
0.110933
-0.098045
-0.120137
0.107456
-0.071107
0.061563
-0.002426
0.126607
-0.072019
-0.083946
0.108727
-0.028532
-0.046272
0.132064
0.010853
-0.118463
0.010866
0.085826
-0.014814
-0.073417
-0.139157
-0.011497
-0.058411
0.113972
-0.040005
0.013158
-0.093693
-0.112405
-0.107330
0.139376
-0.062716
-0.104725
0.132703
0.040019
0.044838
0.033847
0.078029
-0.031905
0.030553
-0.059250
0.073035
-0.018820
0.119875
-0.045017
0.065951
0.064481
0.128707
0.041327
0.122090
0.063847
-0.031364
0.129335
0.028492
0.039500
0.134910
0.082135
-0.123225
-0.031083
0.100611
0.102124
0.067882
-0.109445
-0.046841
-0.078935
-0.067699
-0.005906
0.118153
0.012623
-0.113089
0.065850
0.018227
0.136185
-0.106803
-0.083607
0.096915
-0.028770
-0.110080
0.082242
-0.035881
0.065665
-0.086353
0.037018
-0.096871
-0.097030
-0.090747
0.013668
-0.068145
-0.027658
0.064321
0.023620
0.019480
-0.128607
-0.030809
-0.082456
0.089490
0.018633
0.024270
0.060221
0.056098
-0.098043
0.054492
0.055046
-0.109322
0.118611
0.131026
-0.072390
-0.083991
0.035002
-0.077026
-0.015202
-0.062225
-0.058582
-0.063688
-0.046048
-0.028658
-0.087216
-0.111117
0.134946
0.072718
0.048673
-0.079841
-0.012205
-0.004158
-0.128231
0.072862
-0.093071
0.038361
-0.085261
-0.107748
0.011521
-0.054720
0.017934
0.028662
-0.008977
0.014721
-0.071162
-0.017812
-0.119745
0.005164
-0.094490
0.071093
0.008989
0.038988
0.137153
-0.004491
0.050010
0.033258
-0.016725
0.041403
0.119602
-0.048578
-0.055658
0.025065
0.117424
0.051408
-0.068263
-0.077429
0.047714
0.051286
-0.029411
-0.105557
-0.001416
-0.115263
-0.011071
0.082579
0.062092
-0.125377
0.108512
-0.068668
-0.119401
0.012841
0.132156
0.089041
-0.057226
-0.093582
0.015112
0.035451
-0.019854
0.105274
-0.009171
-0.079705
-0.036301
0.078037
0.139837
0.093866
-0.002640
0.055149
-0.053566
-0.039016
-0.041857
0.124765
-0.014504
-0.129503
-0.051841
0.130914
-0.039406
-0.028508
-0.047370
0.022459
-0.084584
0.131214
0.108005
0.089836
-0.096982
-0.091741
0.108078
0.075052
0.068669
-0.069780
0.127613
0.002374
-0.056210
0.100917
0.084796
-0.011847
0.036412
0.107409
-0.068315
-0.048109
0.118504
-0.044670
0.070961
-0.106739
-0.059393
0.133187
-0.067781
-0.027711
0.013099
0.004451
0.036341
0.119443
0.117797
0.020954
-0.116647
0.104878
0.063246
0.052524
-0.032488
-0.041815
-0.035782
-0.034229
0.139634
-0.034225
0.029466
0.022887
0.010679
0.048988
0.024574
0.057342
0.094999
-0.009181
-0.060400
0.003664
0.001536
-0.066119
-0.024139
0.024900
-0.066753
0.013651
0.063046
0.134159
-0.137859
-0.126305
0.073856
-0.096505
-0.004896
0.046844
0.020116
-0.120651
0.010530
-0.085918
0.035449
0.022120
-0.089311
-0.114764
0.108564
0.036220
0.086494
-0.108163
-0.013208
-0.080100
-0.056633
0.050029
-0.134128
-0.131997
-0.052958
0.095601
-0.059594
-0.008526
0.062371
0.111595
0.044127
0.077015
0.041714
-0.133311
0.082759
0.046964
-0.070152
-0.041607
0.130172
-0.013561
0.050853
0.047826
0.098230
0.037397
0.012613
-0.006587
-0.080826
-0.050394
-0.065635
0.119640
0.072864
0.090802
-0.017343
-0.129859
0.110711
0.040712
0.119293
0.131699
-0.002061
0.063482
-0.017240
0.065503
-0.010903
-0.138979
0.065198
-0.078002
-0.051325
0.090201
-0.106082
-0.086797
-0.109330
-0.110593
-0.035644
0.076001
-0.074435
0.050469
0.088849
-0.087443
0.118173
-0.080692
0.026714
-0.137304
-0.040126
0.099946
0.114943
0.109223
0.017679
0.133200
-0.136680
-0.114058
-0.136225
0.106349
-0.107001
-0.031355
-0.047523
0.001265
0.057250
0.090915
0.093244
-0.084749
-0.108588
0.043757
-0.136699
0.053311
-0.126279
-0.073600
-0.040429
-0.129505
-0.105718
0.017072
-0.098501
-0.103475
0.084954
0.129732
0.118284
-0.113432
-0.040495
-0.070679
0.076631
0.077128
0.043736
-0.115200
0.006798
0.001345
-0.004383
0.072919
-0.012868
-0.106314
-0.056148
-0.122966
-0.080971
0.135460
0.115938
-0.055538
0.044160
0.122834
-0.032624
0.037106
-0.057791
0.137708
-0.130713
-0.123120
0.108960
0.073777
0.072408
0.052907
-0.100660
0.018028
-0.020025
-0.136722
0.118644
0.116855
0.127689
-0.092486
-0.021133
-0.109865
0.061836
0.001279
-0.071660
0.034342
-0.029932
0.002733
0.069474
-0.052208
-0.000304
0.051606
0.059158
0.061852
-0.130733
-0.029380
0.112167
-0.100086
-0.031334
0.056052
0.021063
0.109363
-0.046018
0.096267
0.085430
0.061555
0.061970
-0.016845
-0.133567
0.071690
-0.073912
0.027278
0.036982
0.120788
-0.022107
-0.082468
0.075477
0.105459
-0.092178
0.124288
-0.087914
-0.120124
0.119639
0.127421
0.098910
-0.007053
-0.042395
-0.048708
0.059206
0.070751
0.127693
-0.066489
-0.006992
0.036972
0.065499
-0.122079
0.010617
0.109222
0.139055
0.018121
0.047277
0.085800
-0.077588
-0.023178
-0.135945
0.019913
-0.098938
0.087188
0.098104
-0.007359
0.101241
-0.047335
-0.104339
0.129587
0.116802
0.036688
-0.057475
0.063424
0.097102
-0.007375
-0.083741
-0.133731
0.110521
0.107095
0.069297
-0.087350
0.094042
0.002689
0.128608
0.108498
0.013419
0.032173
-0.069979
-0.039805
-0.013890
0.124691
-0.107523
-0.116039
-0.099366
-0.023038
-0.006754
0.070921
-0.117698
-0.006427
0.014609
-0.005573
0.034499
-0.003879
0.020146
0.018314
0.104141
-0.048937
0.115635
0.107489
-0.039411
0.103976
0.062383
0.026251
-0.013539
0.079320
-0.057621
0.040546
-0.108238
0.116984
-0.058586
-0.089050
-0.089134
-0.139068
-0.020756
-0.050470
0.114060
-0.083815
-0.007508
0.038692
0.075424
0.133653
0.001984
0.003307
-0.017527
-0.130047
-0.118219
-0.064113
0.092606
0.016232
0.009645
-0.000841
-0.000173
-0.111232
-0.132872
0.046017
-0.021594
0.036290
0.038246
0.120456
-0.089226
0.049374
0.060805
-0.133570
0.073667
0.007062
0.023935
-0.110064
0.120006
0.030653
-0.015768
0.068253
-0.078799
-0.083963
-0.078388
0.037998
-0.070090
-0.030875
-0.022954
-0.082010
-0.050610
0.134401
-0.101075
-0.066961
0.051451
-0.036212
-0.134920
0.067064
0.086239
-0.090436
0.008836
0.041179
0.044326
0.049996
-0.096903
-0.052607
0.099595
-0.024002
0.012273
-0.018235
-0.064333
-0.064546
0.029552
-0.096713
-0.051834
-0.094582
0.122921
0.060329
-0.032283
0.101880
0.019635
0.138758
0.005186
-0.022243
-0.093131
0.105495
-0.052317
0.070574
0.073440
-0.106155
-0.040900
0.014169
-0.051722
-0.030200
-0.045032
-0.078251
-0.128190
-0.002443
-0.094523
-0.057033
-0.029977
0.034195
-0.097901
-0.063062
0.003997
0.115055
0.006317
-0.084786
-0.072668
0.139189
0.063751
0.093644
-0.131873
-0.113417
-0.018095
-0.105007
0.043923
-0.105444
-0.068879
-0.139889
-0.060175
-0.034422
-0.137579
-0.023539
0.028850
0.080780
0.033492
-0.075344
0.098345
-0.043873
0.053806
-0.126942
-0.066551
0.042081
0.002361
0.036737
-0.139585
-0.049004
0.077230
-0.022854
0.059426
-0.047685
-0.079758
-0.114574
-0.140223
0.031824
0.074688
-0.118742
-0.047945
-0.137343
-0.009159
-0.061484
0.113390
-0.044018
0.035162
0.079542
-0.089253
-0.007039
-0.069977
0.009901
-0.125310
0.088136
0.009075
-0.010716
-0.036093
0.078828
0.004114
-0.058172
0.061654
-0.121018
0.092819
-0.127330
-0.020544
0.047615
-0.114713
-0.067881
0.133060
-0.048114
-0.086537
0.133402
0.092733
0.110462
0.027497
0.025374
-0.097959
0.099295
0.060823
0.083576
-0.113122
0.003076
-0.032981
-0.082235
-0.113533
-0.010075
0.077403
0.042100
0.132592
-0.072337
0.021909
0.134140
0.133030
0.114126
0.068501
0.001910
0.095964
0.086447
-0.030554
0.100043
-0.062341
0.130030
0.009774
0.078243
0.068621
-0.120099
-0.026534
0.121446
0.003558
0.101546
0.122969
-0.007888
-0.084749
0.029164
-0.022180
-0.058126
-0.100259
-0.042879
-0.095668
-0.075423
-0.023342
-0.065389
0.055960
0.097842
-0.050328
-0.034071
0.062896
0.026664
0.012687
0.095988
0.131457
0.033990
-0.062443
-0.112491
-0.122856
-0.020581
-0.096620
0.122177
-0.014436
0.080992
-0.054944
-0.066726
-0.004179
0.116617
-0.038414
0.051476
-0.007490
-0.024475
0.101753
0.136043
-0.103773
-0.002770
0.099815
0.074518
0.091771
-0.098842
0.045560
-0.110313
-0.004595
-0.114488
-0.054851
0.050132
0.086365
-0.077115
-0.106126
-0.125860
0.060872
-0.029307
0.108025
0.105308
-0.009442
0.055439
-0.130001
0.004753
0.033738
0.130220
-0.048418
0.117292
-0.023438
-0.052211
0.136825
-0.003731
0.116641
0.048638
-0.011443
0.107908
0.062602
0.045467
0.016250
-0.136403
-0.035250
-0.021059
-0.028737
-0.030393
-0.077001
-0.089772
-0.056774
0.003367
-0.120417
-0.054170
-0.124887
0.099368
0.080110
-0.076547
0.027642
-0.012480
0.125735
0.021580
-0.056117
-0.002806
-0.094927
-0.098469
0.066860
0.128401
0.124209
-0.028969
0.047045
0.118982
0.125178
-0.054559
-0.013427
0.004031
0.039677
0.131348
-0.097069
0.091293
-0.124815
-0.132312
0.068693
0.084153
-0.058347
-0.046944
0.006149
0.094080
0.133653
0.121864
-0.102861
-0.054750
0.087608
-0.038059
-0.097812
-0.071630
-0.051084
-0.091603
0.014206
-0.107692
0.108124
0.022789
-0.001566
0.121670
0.089310
-0.047201
0.095120
-0.102323
-0.134128
-0.119103
0.023359
-0.032144
-0.040510
0.027186
-0.079811
0.082132
0.078493
0.090559
-0.055963
0.093757
0.124128
0.031661
-0.029986
-0.005684
-0.073788
-0.129290
0.126449
-0.080564
-0.129661
0.116407
0.100708
0.091471
0.071191
0.051777
0.003449
0.099103
0.134053
0.015036
-0.015936
-0.024543
-0.086086
0.008270
0.138611
0.069709
-0.009385
0.000877
0.056462
-0.004694
0.018836
-0.087869
0.094303
0.055841
0.016748
0.103296
0.060583
0.123242
0.139380
0.026944
0.027381
0.031687
0.044845
0.044404
0.033660
-0.133535
0.097311
-0.124813
-0.080157
-0.128078
-0.005388
0.123607
0.066693
-0.130114
0.012159
0.047080
0.091453
-0.112677
0.091603
0.039263
-0.021008
0.070090
0.045250
-0.000300
0.045292
0.108451
0.038095
0.138288
0.043180
-0.063939
-0.041977
0.124154
0.026028
0.111636
-0.042775
0.087209
-0.138823
0.022602
-0.090408
-0.085155
0.126866
0.126215
-0.045637
-0.116456
-0.097952
-0.034067
0.120804
-0.019400
0.056137
0.063169
0.046320
-0.036882
-0.133887
-0.025069
0.126405
-0.019097
0.003689
-0.027251
0.123183
-0.015039
0.027915
-0.115646
0.064358
0.086215
0.129558
0.003070
0.122258
-0.066684
-0.030478
0.047892
-0.120675
-0.063917
-0.123130
-0.045375
0.070419
0.010126
-0.118469
0.083132
-0.137358
-0.117509
0.043625
-0.124172
0.003273
0.039300
0.007690
-0.044068
-0.082394
-0.033860
0.135510
0.044047
0.007421
-0.063642
0.125640
-0.007070
-0.089710
0.044061
-0.072345
0.067443
0.095018
0.081717
0.000069
-0.110164
-0.061280
0.004042
0.071534
0.114011
-0.047995
0.112179
0.132447
-0.069735
0.115727
0.049678
-0.067466
-0.133682
-0.046854
-0.068860
-0.081112
0.099734
0.077717
-0.076601
0.050692
-0.012154
0.008179
-0.066417
0.056905
0.126477
-0.094429
0.093275
-0.112646
0.051027
-0.133569
0.105569
0.127517
0.065031
-0.107268
0.088918
-0.065252
-0.052754
0.029673
0.135775
0.003733
0.067626
0.022487
0.105396
-0.132426
-0.056346
-0.012940
-0.013889
0.018241
0.032823
0.013288
-0.043577
-0.059468
-0.109188
0.080964
0.060495
0.099489
0.096158
0.056927
0.055902
0.104310
0.120282
0.013950
-0.134568
-0.015276
0.043340
-0.083761
-0.115992
0.039311
-0.056841
-0.012605
-0.044183
-0.050687
0.047531
0.063344
-0.041318
0.018510
-0.048452
0.040993
-0.091420
-0.036673
0.128865
0.021051
-0.106329
-0.081622
0.005134
0.025870
-0.127482
-0.028303
-0.089590
0.135833
-0.102250
-0.131225
-0.074172
0.125891
0.133013
0.138971
0.102184
0.067471
0.110280
-0.019541
-0.057935
0.055176
0.001054
-0.129754
-0.021147
0.098742
-0.015748
-0.118972
0.022522
-0.109605
-0.059160
-0.052955
-0.054318
-0.128434
0.119025
-0.069447
-0.010372
0.125719
0.047061
-0.021886
0.009019
0.060064
0.135750
-0.072416
0.028500
0.053580
0.055487
0.038985
-0.052076
-0.091020
-0.101750
0.052693
-0.112849
0.010336
0.094964
0.022646
0.041752
-0.097386
0.009580
0.097308
-0.071590
0.057903
-0.083553
0.100807
0.020471
0.073898
-0.045615
-0.083246
0.077356
-0.005337
0.135521
0.072143
0.012128
0.025849
-0.018373
0.035180
-0.031254
0.013764
-0.007981
0.116277
0.017246
0.127257
0.090344
0.088221
0.016235
0.022233
0.082895
-0.045042
-0.118239
-0.095113
-0.023648
-0.076072
0.079854
-0.104634
-0.138519
-0.019684
-0.036876
-0.062076
-0.016781
0.088512
-0.123979
0.101845
0.081335
0.126708
0.001471
-0.110561
-0.112465
-0.068349
0.010623
0.019302
0.005140
-0.014429
-0.081367
-0.124237
0.137812
-0.109902
0.018890
-0.025160
0.057452
0.102502
0.110640
-0.068874
-0.101400
0.009418
-0.027551
0.038866
0.099758
0.043092
0.100333
0.030223
0.048079
-0.079644
0.127462
0.081372
0.132994
0.121707
-0.098946
-0.006822
-0.090226
0.109615
0.086602
-0.015544
0.023713
0.128970
-0.032660
0.077584
-0.075158
0.079595
-0.120795
-0.028295
0.059984
-0.119737
-0.107006
0.049432
-0.018760
0.034512
-0.098696
-0.077047
-0.016996
0.002937
0.106502
0.008160
0.092358
0.112913
0.048820
0.018341
0.016299
-0.034842
-0.102635
0.043526
-0.092021
-0.039206
0.071211
0.092813
-0.119221
0.138035
0.029937
-0.018522
0.021104
0.001583
0.051520
0.130885
0.013541
0.136979
-0.073097
-0.022756
0.074719
-0.030465
0.136938
0.045688
0.018573
-0.076104
0.107078
0.057056
-0.040726
-0.005159
-0.091061
0.079222
-0.119110
0.026151
-0.035091
-0.035928
-0.016839
0.095687
0.134053
-0.138672
0.106089
0.042884
-0.092559
0.049558
-0.053358
0.008053
-0.082674
-0.034516
-0.093021
0.093557
0.123607
0.113104
-0.134636
-0.074716
-0.072730
-0.060818
0.039693
0.041377
0.081123
0.116254
-0.054923
0.117811
-0.009573
-0.012000
0.058452
-0.048376
-0.008340
-0.096092
-0.034561
-0.051795
-0.065418
0.067973
0.129827
0.085237
-0.068902
-0.016517
-0.071572
0.044224
-0.063795
-0.120724
-0.047783
0.095050
-0.065909
-0.121739
-0.058598
-0.074203
0.068746
0.011207
-0.089612
0.028557
-0.118746
0.044945
-0.110862
0.062517
-0.031136
0.067060
-0.127356
0.087909
-0.050435
0.132368
0.139259
-0.037967
-0.128033
-0.079904
0.057113
-0.123195
0.034890
-0.125496
0.136409
-0.017789
0.052547
0.057489
0.116291
-0.017640
0.119568
-0.028464
0.035379
-0.016243
-0.024889
-0.080644
-0.058820
-0.112017
0.003624
-0.031931
0.085680
-0.035130
0.110644
-0.105108
0.049725
0.046247
0.056173
0.048980
-0.093429
-0.102375
0.127055
0.132956
-0.074928
0.022869
-0.060652
-0.069313
0.064776
0.021124
0.020454
0.037983
-0.012788
0.106619
0.113396
-0.081578
0.036843
-0.121314
0.095806
-0.034320
-0.136890
0.121934
-0.056948
0.037607
-0.077012
0.089639
-0.017277
-0.094260
0.072204
-0.102231
0.115447
-0.080322
0.032677
-0.059342
-0.070239
-0.106349
0.055286
0.104012
0.025401
0.126109
0.004881
-0.109805
0.052658
-0.042229
-0.054221
-0.127485
-0.001889
0.010649
0.011243
0.120024
-0.052308
-0.094883
0.062379
0.129946
0.030347
-0.037698
-0.086344
-0.068623
0.006722
-0.099702
0.054252
0.105018
-0.000021
0.017101
0.031768
-0.024524
-0.116999
-0.114925
0.058338
-0.101728
0.103224
0.030186
0.053005
0.097412
-0.078666
0.090654
0.012912
0.038387
0.126844
-0.113727
-0.022805
-0.121630
-0.098406
-0.062370
-0.008421
-0.121496
-0.004298
-0.112409
-0.023484
0.072814
0.039314
0.087781
0.006807
-0.055070
-0.023815
-0.039347
-0.097140
-0.118198
-0.047050
0.113303
0.094181
0.001612
-0.076663
0.134265
0.116157
-0.052302
-0.061937
-0.003315
-0.008931
-0.063401
-0.138852
0.088069
0.048968
0.119540
-0.108247
-0.091209
-0.065032
0.065913
-0.103688
0.128641
0.104078
-0.043003
-0.126162
-0.019779
-0.067787
-0.014438
0.034551
0.085160
0.060834
0.066844
0.050955
-0.062295
-0.026012
0.036950
0.092028
-0.108420
0.123723
0.074822
-0.031450
0.091431
-0.088586
-0.006435
-0.063512
-0.046146
0.108580
-0.080490
0.077864
0.128788
-0.130535
-0.113203
-0.114584
0.138507
0.040320
-0.042784
-0.020266
0.133416
0.110818
-0.112809
-0.001869
-0.010616
-0.048332
-0.124936
0.060026
0.069752
-0.116430
0.081977
-0.063268
0.067908
0.089203
0.090087
-0.061414
-0.125236
-0.074623
0.029224
-0.047967
-0.122886
-0.095662
-0.120470
-0.075662
-0.095204
0.051295
-0.006715
0.049047
-0.133707
-0.028884
0.044912
-0.124328
0.029637
-0.104681
0.076189
0.039589
0.014360
-0.130442
0.035296
0.090496
-0.037174
0.133381
-0.059547
-0.042826
-0.081367
-0.080216
-0.093578
0.085037
-0.096511
0.059927
0.028498
-0.086378
-0.011641
0.058800
-0.081677
-0.034170
-0.080091
-0.139048
-0.080082
-0.124720
-0.124535
0.027239
-0.059778
-0.059345
0.048568
0.111983
-0.038675
0.020829
-0.136180
0.044771
0.102294
-0.069998
0.047077
-0.089121
0.134153
0.121927
-0.007776
0.016131
-0.013351
0.014324
-0.022493
0.047784
0.082029
0.123178
0.091061
0.125408
0.048660
0.106891
-0.120210
0.069759
0.003478
-0.008474
-0.104657
0.023799
-0.012395
0.044514
0.002926
0.126412
-0.016965
-0.077046
0.102784
-0.058065
0.008003
0.095917
-0.021347
0.130936
0.126455
-0.001725
-0.039615
-0.110951
0.100984
0.015620
-0.079574
0.078274
-0.095942
0.045475
0.116330
-0.026384
-0.090847
0.035926
-0.032738
0.090823
0.011595
-0.073817
-0.101583
0.137293
0.000056
0.072099
-0.067876
-0.110197
0.064469
-0.060148
-0.007295
-0.087690
0.054260
0.129481
0.112090
-0.121812
-0.016041
-0.002491
-0.054262
0.128353
-0.102903
0.067464
-0.075190
0.064069
-0.007072
-0.060123
0.025515
0.095665
-0.097149
0.015028
-0.070500
-0.077641
0.114895
0.137253
-0.104710
0.137130
0.016514
-0.102047
-0.010235
-0.101394
0.128074
-0.010221
-0.082372
-0.070253
-0.048413
0.018502
-0.038370
0.003039
0.039992
-0.068351
-0.024350
-0.059683
0.072902
-0.115567
0.115591
-0.072170
-0.085991
-0.104084
0.126377
-0.095540
0.056300
-0.065405
0.073496
0.064028
-0.074945
-0.007030
0.080592
-0.021558
0.100717
-0.037222
0.125377
-0.058394
0.121583
-0.096606
0.011891
-0.129523
-0.092403
0.019660
-0.012235
0.016560
-0.134015
-0.079649
0.083707
0.040416
0.134122
-0.105588
-0.114956
-0.006945
0.125789
-0.115346
-0.095764
0.039186
-0.106968
0.001551
0.028130
0.112844
0.088754
0.133105
0.137399
0.012794
-0.060267
-0.048326
-0.123391
0.125691
-0.033469
-0.002266
-0.002576
0.035692
-0.127103
0.017223
-0.118798
-0.132461
-0.116033
0.098319
0.054253
-0.080386
-0.110082
-0.006185
-0.038625
0.091365
0.057985
0.101964
0.070654
0.020054
0.031370
0.080047
-0.098527
-0.024337
0.018714
-0.100262
0.013275
-0.124414
0.063219
-0.101845
-0.089891
-0.091780
0.096398
0.095224
-0.078478
-0.039667
0.043669
0.068439
-0.061367
-0.114567
0.069828
0.035121
0.011261
0.019780
0.085895
0.118987
-0.079457
0.127894
-0.034992
-0.133974
-0.077110
-0.014229
0.122646
0.082487
-0.136019
0.022098
-0.119623
0.092013
-0.119010
-0.024079
-0.127960
0.050355
0.090567
-0.031658
0.023014
0.011004
-0.075282
-0.129354
0.006368
-0.041278
0.132302
0.111702
0.067737
0.024158
0.113884
-0.082162
0.092442
0.043908
0.063270
0.036291
0.018438
-0.032522
0.064555
-0.085894
-0.052976
-0.076151
-0.120111
-0.108195
0.079366
-0.008623
-0.131600
-0.074402
-0.061079
0.072475
0.099442
0.070066
0.014155
0.035314
-0.038697
-0.094531
0.024872
0.116936
0.035686
-0.088135
-0.120688
0.040239
0.134295
0.135849
0.116494
-0.082072
0.056476
0.122127
-0.106884
-0.027246
-0.111822
-0.096039
0.138345
-0.110570
-0.084985
0.117373
-0.067031
-0.094425
-0.030570
0.028036
0.016804
-0.000319
-0.102366
-0.019616
-0.025203
-0.034652
-0.009808
-0.054491
0.007942
0.102602
-0.098290
-0.125568
0.105439
-0.121349
0.117394
0.023526
-0.087449
0.083859
0.088780
0.086491
0.048507
0.024060
0.138686
0.075937
0.001101
-0.046184
-0.054739
0.055429
0.120792
0.080944
0.110032
-0.037072
0.071127
-0.105643
0.052715
0.006280
0.045861
0.104491
-0.006623
-0.077170
0.015768
0.083826
-0.097844
0.072031
0.093257
0.062498
-0.060349
0.017319
-0.069943
0.115936
-0.105605
0.094140
0.080232
-0.042879
0.032881
-0.100945
-0.105714
0.003344
-0.015215
-0.136505
0.004152
0.131897
0.100829
0.137148
0.000054
0.124124
0.064126
0.024708
-0.139209
0.003170
-0.080595
0.042819
-0.138315
0.045050
-0.071774
0.124243
0.132142
0.033511
0.038155
0.094609
0.021064
-0.073138
0.134468
0.110561
0.109824
-0.010241
0.006770
-0.030871
-0.040583
0.124922
0.133109
-0.003713
0.023182
0.067294
0.084186
-0.019792
0.096899
-0.039565
-0.098466
0.138585
0.098257
0.108190
-0.070774
-0.031981
-0.062877
0.005038
0.009990
-0.079981
0.102384
0.052095
-0.036334
-0.035876
0.119230
-0.110133
-0.029925
0.055173
0.121489
0.015750
-0.036553
0.049865
0.124476
-0.070106
-0.043489
0.039908
0.013411
0.132614
0.087652
0.036379
-0.079776
0.134687
0.126167
0.008074
-0.064063
-0.052347
0.094461
0.021099
0.108012
-0.085954
0.045904
-0.034126
-0.102424
-0.103426
0.017931
0.027128
-0.022072
-0.114216
0.084160
-0.135059
-0.079564
0.089458
-0.112523
-0.064358
-0.110938
0.106985
-0.117528
0.096114
0.041739
-0.091235
0.115691
0.007365
-0.133675
-0.059226
-0.024417
-0.070128
-0.095927
0.109490
-0.000732
0.015815
0.063039
0.091976
0.131884
-0.082000
0.073172
-0.012365
0.131689
0.047583
0.050740
-0.013907
-0.101229
-0.046987
-0.099218
0.116503
0.133274
-0.127612
0.067606
-0.128206
0.055688
-0.058246
0.009084
-0.070676
-0.035625
0.001021
0.081254
0.066173
0.057451
-0.014654
0.086284
0.065338
-0.065593
0.037695
0.049648
0.012949
0.019328
-0.057886
0.114202
0.025963
0.032490
0.131720
0.001586
0.113505
-0.003952
0.007704
-0.069645
0.040372
-0.108312
-0.050617
-0.091159
-0.119901
0.106786
-0.016822
-0.058664
-0.092755
-0.110953
0.114058
0.130647
0.139140
-0.008993
0.064207
0.119695
-0.027243
-0.064493
0.024133
0.085432
-0.032719
0.036315
0.119989
0.070133
-0.082598
-0.051760
-0.121232
0.018247
0.133600
-0.104584
-0.074704
0.051106
-0.043845
-0.076425
0.134068
0.030213
0.122529
0.044866
0.071279
0.075441
0.046831
0.053140
-0.025757
-0.013976
-0.097655
0.035525
-0.121149
-0.018619
-0.132305
0.133897
0.027788
-0.099976
0.090143
-0.050776
-0.060639
0.012541
-0.061299
-0.106705
0.021263
0.041100
-0.021622
-0.132718
0.127397
-0.078223
-0.123700
-0.066317
0.028587
-0.059908
0.096934
-0.122429
-0.094247
0.132850
0.094057
0.079870
-0.133644
-0.006744
0.126795
-0.010436
0.125970
-0.059169
-0.123424
0.001233
-0.085632
0.056684
0.086841
-0.042637
-0.126600
0.072061
0.109543
0.107034
0.087850
0.046399
-0.011290
0.058210
0.079939
0.098487
-0.082542
0.003196
0.051516
0.063632
-0.126976
0.065028
0.083591
-0.048963
-0.095491
0.050386
0.074434
0.026109
0.034217
-0.125363
0.068814
-0.129945
-0.011237
-0.126244
-0.093122
-0.029755
-0.004029
-0.059106
0.099488
0.116730
0.103940
-0.117746
-0.086677
-0.078766
-0.092225
-0.025362
-0.047181
0.054638
-0.132486
0.106795
-0.134701
-0.110929
0.050569
-0.065910
0.000334
0.019787
0.111194
-0.036452
-0.007814
0.114685
0.048145
0.017527
-0.055155
0.071207
-0.060401
-0.072151
-0.127195
0.051342
0.061649
-0.084356
-0.101592
0.014483
0.107174
-0.060591
0.051502
0.080278
0.093959
-0.063986
-0.094443
-0.013767
0.003200
0.068965
0.133973
-0.042374
0.070699
0.026934
0.135457
0.087366
-0.094978
-0.075477
-0.092767
-0.004517
-0.004933
0.019657
-0.073083
0.036065
0.004520
-0.016259
0.138210
-0.078388
0.133518
-0.024690
0.093793
-0.116605
0.024551
0.029665
0.008433
-0.109392
0.017685
0.019164
0.024135
0.104565
-0.130964
0.105163
-0.043458
-0.080162
-0.094716
0.098433
0.067103
0.011690
0.058174
-0.083587
0.058745
-0.040906
-0.132602
-0.015791
-0.077063
0.008469
0.087266
-0.023480
-0.036452
-0.021065
-0.121694
-0.067057
0.064881
-0.072379
0.109669
-0.129261
-0.114861
0.134538
-0.019120
-0.004522
-0.014547
0.104664
0.079324
-0.062899
-0.004471
-0.040346
-0.048809
-0.109022
0.133719
0.053471
-0.040038
-0.073613
0.082139
-0.082750
0.020145
-0.046719
-0.080437
-0.135647
0.061572
0.114317
0.114671
0.028140
0.044541
-0.042598
0.127501
-0.065306
-0.081383
0.061070
0.040289
0.037435
0.009191
0.086037
0.095060
-0.056051
-0.062988
0.079654
-0.068104
0.094424
-0.008003
0.027569
0.014400
-0.037246
0.125816
0.087912
-0.022406
-0.061234
-0.078733
-0.064972
0.049465
0.011529
0.061919
-0.114108
0.087448
-0.110494
-0.031444
-0.062978
0.134529
0.126722
-0.020318
-0.074392
0.056121
-0.020948
-0.113990
-0.020980
0.103236
0.040736
-0.132333
-0.128523
0.062722
0.135371
-0.042390
0.115687
0.121866
-0.031355
0.108569
-0.090310
-0.056488
0.054572
0.005503
-0.070620
-0.112917
-0.044344
0.031443
-0.124488
-0.096434
0.088212
0.102071
0.116224
-0.084613
-0.005735
0.110192
0.019041
-0.003047
-0.098001
0.003544
-0.125791
0.111192
0.045259
-0.032874
-0.083559
-0.004524
-0.079529
0.039668
0.014883
-0.025508
-0.044021
0.064651
0.023818
-0.134492
0.013835
-0.138198
-0.097571
0.026747
-0.073009
0.106352
-0.130123
-0.053398
-0.050999
0.056073
-0.065691
-0.098239
-0.121201
-0.097604
0.086248
-0.125876
-0.137957
0.019778
-0.016215
-0.076750
-0.050477
0.086905
-0.109483
-0.044119
-0.010391
0.019447
-0.007214
0.109091
-0.081057
-0.005128
-0.131390
-0.119119
0.014375
-0.087571
-0.090288
0.113125
-0.065366
-0.121545
0.115030
0.114287
0.039039
-0.134319
0.138749
-0.077720
0.016284
0.058669
0.011609
-0.120268
0.026150
0.038778
0.010982
-0.041590
-0.014944
0.093123
-0.116246
-0.050864
-0.062415
-0.125837
-0.091717
-0.088850
0.034739
-0.049111
-0.060443
-0.077549
0.008839
-0.059721
0.056913
0.014263
0.003808
0.041249
0.136044
0.041030
-0.056460
0.137483
-0.096473
0.071220
0.010014
0.104851
0.045102
0.118468
-0.137366
-0.055073
-0.003914
0.051110
-0.036117
0.004392
0.126124
0.029585
0.001145
0.114265
0.131960
0.104977
-0.068100
-0.007248
0.115496
0.094788
0.013513
0.034076
0.087519
0.097911
-0.012105
-0.017716
0.097639
0.041793
0.059773
0.072310
-0.061294
0.007945
-0.045657
0.069339
-0.058177
-0.062942
0.019764
-0.090078
0.014485
-0.079557
-0.123500
0.120789
0.071848
-0.017087
-0.072442
0.116060
0.138138
0.060812
0.026825
0.118085
0.010024
-0.088410
-0.122819
-0.078529
0.002330
0.029289
0.085789
-0.013198
0.101956
-0.066156
0.000307
-0.078799
0.032651
0.022211
0.099640
0.088415
-0.139018
0.139429
0.048221
0.120283
0.124225
-0.025534
-0.066130
-0.123734
-0.127079
-0.079791
0.128828
-0.030966
0.051645
0.117124
-0.008626
-0.063759
-0.107089
-0.015089
0.019971
-0.016423
0.016986
-0.004159
-0.104150
0.092895
-0.058791
0.008000
0.124470
0.024702
0.082319
-0.051559
-0.086071
-0.014263
0.011102
-0.115610
0.123453
0.047319
0.138859
-0.042370
-0.026723
0.057342
-0.115018
0.096629
0.070643
0.053819
0.076747
-0.032270
-0.079325
-0.008372
0.038545
0.058889
-0.042655
-0.070279
0.136172
-0.013517
-0.101272
-0.031684
0.090804
-0.018616
0.099423
-0.115666
0.107244
-0.040384
0.034323
0.088788
0.054047
0.119585
-0.064044
0.130679
-0.054863
-0.126109
0.045837
0.031171
0.027679
-0.012557
0.133743
0.032264
0.014220
-0.035732
0.128600
0.068419
0.026602
-0.134264
-0.023051
-0.012756
0.076079
-0.052775
-0.065616
-0.073555
-0.089802
-0.006795
0.129754
0.124721
-0.073911
0.088657
0.137072
0.118095
-0.104468
0.090381
0.007712
0.074463
-0.048010
0.050937
-0.000469
-0.021264
-0.127638
-0.041452
0.130268
0.005642
0.096570
0.113473
0.050283
-0.058149
-0.013006
-0.093590
-0.029317
0.022770
0.066204
-0.054912
-0.006918
-0.006284
-0.076201
0.051880
0.086078
0.013670
-0.011202
0.135946
0.101655
-0.036527
0.014484
0.047960
-0.112582
-0.099928
0.087984
0.037198
0.017000
-0.070235
0.101411
-0.083793
0.025751
0.057144
-0.044849
-0.061265
-0.080886
0.006416
0.042622
0.114746
0.016827
-0.082725
-0.063473
0.014435
-0.049792
-0.084740
0.024450
0.070672
0.101189
-0.006726
-0.017241
-0.133595
-0.037350
0.118427
0.129334
-0.081332
0.127716
0.019885
0.011368
0.020905
0.043694
0.005036
-0.071491
0.093327
0.112271
-0.042434
0.118719
-0.080559
-0.022689
-0.076403
-0.066581
0.039450
0.036104
-0.128604
-0.100248
-0.134161
-0.017968
0.113674
0.007927
0.060179
-0.136244
-0.070397
-0.026777
-0.016196
-0.120990
-0.093260
-0.113948
0.125998
-0.090391
-0.020622
0.121584
0.122495
-0.063659
0.049635
-0.018370
0.137978
-0.108451
0.134121
0.061608
-0.081151
0.085714
-0.050158
0.051719
0.064050
-0.089824
-0.009235
0.024941
-0.117223
0.059889
0.125534
0.057030
-0.137750
0.077461
0.050271
0.016597
0.046689
0.085319
0.019540
0.046135
0.087930
-0.026226
-0.057401
-0.063196
0.071596
-0.132133
-0.110762
-0.047235
0.007225
0.058667
-0.073185
0.054545
-0.070640
-0.126859
0.089683
-0.073656
0.030504
-0.035350
-0.116586
0.041594
-0.034719
-0.081237
0.108597
-0.086945
0.030666
-0.096700
0.024013
-0.081529
-0.054518
-0.137788
0.067148
-0.084460
-0.034713
0.116691
0.047625
-0.084756
0.127262
-0.075396
-0.016194
-0.096317
0.108234
0.064576
-0.032962
0.002989
0.001021
0.007878
-0.048270
-0.109136
0.127884
-0.016713
-0.068827
0.069502
0.006855
0.106306
-0.070925
0.039111
-0.000655
-0.013133
-0.044422
0.008952
-0.013219
0.117718
0.019450
0.064067
-0.061006
0.039422
0.095729
-0.137062
0.090137
0.134292
0.106499
0.080686
0.058775
0.013874
0.075434
-0.011567
0.016923
0.119409
0.057226
0.021897
-0.013611
-0.066658
-0.031166
-0.008996
0.046239
0.070402
-0.084119
0.044206
0.049256
-0.035593
-0.022433
0.125614
0.018453
-0.117601
0.069877
0.004274
-0.117790
0.075203
0.132641
-0.059243
0.039956
0.015442
0.061825
0.051705
-0.133047
0.094235
-0.114410
-0.093628
0.042371
-0.089794
-0.059071
-0.047592
0.046230
0.133452
-0.007593
-0.123220
-0.111337
-0.022168
-0.046452
-0.080857
-0.049031
-0.112607
0.016566
-0.127294
-0.117048
-0.138394
0.044817
0.041358
-0.092730
-0.132609
-0.002107
0.013392
0.012722
0.127860
0.030881
0.120837
0.032592
-0.013424
0.080988
0.028768
0.059661
-0.017317
-0.122613
0.072893
-0.101461
-0.067773
0.033128
0.079641
0.110418
0.029112
-0.040987
0.014114
-0.002999
0.045191
0.003193
-0.078065
0.118952
0.027210
-0.079166
-0.100049
0.119050
0.096464
-0.091907
-0.099572
-0.069685
-0.045171
-0.106470
0.121344
-0.012192
-0.035429
0.122800
0.108735
-0.131636
0.066018
0.056269
0.139685
-0.006801
-0.083468
0.020976
-0.082929
-0.132773
-0.031953
0.066087
0.032891
-0.057878
0.057982
-0.035047
-0.002155
-0.030035
-0.118905
0.115422
-0.068968
-0.055498
0.007804
0.015916
-0.072472
-0.133685
0.131051
-0.091160
0.104598
-0.117738
-0.129521
0.110776
-0.072253
-0.034515
0.061889
-0.101562
-0.020260
-0.014153
-0.138515
-0.037968
-0.035556
0.061292
-0.074842
0.064403
0.027860
-0.067597
-0.097397
-0.118627
0.032217
-0.131905
0.080080
0.023928
0.128754
0.063856
-0.035028
0.104365
0.029269
-0.032664
0.132531
-0.024136
0.124829
-0.005004
0.077501
-0.118883
-0.077030
0.034635
0.001732
-0.077356
-0.043025
0.086920
0.134080
-0.084230
-0.044907
-0.038008
-0.047858
-0.041303
-0.096556
-0.124825
0.063757
0.038731
0.049688
0.108892
-0.029183
0.086396
0.012698
0.103952
-0.034100
-0.017814
-0.093276
-0.092392
0.123073
-0.006436
0.034226
0.106527
0.004944
-0.003947
0.030174
-0.097337
-0.080018
-0.079867
-0.091681
0.012057
0.076717
0.004008
0.007891
0.020401
-0.049819
0.101662
-0.076106
-0.065321
0.059981
-0.037942
-0.032658
0.127489
-0.109000
0.027717
0.000481
0.014090
0.053608
-0.119736
0.102787
0.124175
0.119726
0.128953
-0.122499
0.012171
0.026063
-0.060585
-0.100847
0.131206
0.013674
-0.056058
0.003500
0.040874
0.012399
0.004114
-0.126863
-0.074418
0.042692
-0.094969
0.123287
0.080470
0.105149
0.065964
-0.105621
-0.079976
0.103712
0.002780
0.007785
0.063633
-0.125621
0.038737
-0.094793
-0.054501
0.063235
-0.023054
-0.044797
-0.108034
0.025487
0.109347
0.005787
0.131302
0.024868
-0.112306
-0.091248
-0.070333
0.038234
-0.006469
-0.138065
0.005368
-0.067434
0.116231
0.038282
-0.057420
-0.036479
-0.115502
-0.071832
0.101747
0.083019
-0.099243
0.051712
-0.055140
-0.074485
-0.055831
0.093394
0.082822
0.110961
0.123171
0.085452
0.059011
0.053687
-0.113241
-0.044134
0.136352
-0.067240
-0.125199
0.092194
0.136698
-0.073849
0.118780
-0.135457
-0.025346
0.072371
-0.036446
-0.055237
-0.089948
0.124399
0.091815
0.139920
0.075313
-0.092561
-0.094811
0.095361
0.064836
-0.127435
0.006693
0.110251
-0.017586
-0.102712
-0.091694
-0.098318
0.085035
-0.089942
-0.081565
-0.073936
-0.073877
0.086029
-0.051227
-0.066376
-0.079335
-0.077262
0.130966
-0.121752
-0.079889
-0.032676
0.006962
0.085639
-0.031250
0.029699
0.034944
-0.122669
-0.085541
0.127775
-0.030644
-0.093745
-0.007098
-0.126030
-0.118771
-0.065081
0.069679
-0.100599
0.126554
0.078720
-0.050000
-0.015977
-0.011410
-0.020449
0.126805
0.115915
-0.136990
-0.055181
-0.041815
-0.049627
0.036190
-0.089784
0.041599
-0.134124
0.052420
0.038738
0.068114
-0.001899
-0.104259
0.118449
-0.060717
0.060191
-0.053198
-0.098033
0.098587
0.023460
-0.089368
-0.062539
-0.003834
0.120771
-0.076620
-0.010605
0.059434
0.080384
-0.096920
0.032681
0.007966
0.107280
0.061769
-0.000213
0.078391
0.069096
-0.025498
-0.080354
0.029132
0.080679
0.110721
0.005040
0.036281
-0.015558
0.031887
0.127854
0.020393
0.085302
-0.098701
-0.138402
-0.052229
-0.116501
-0.070733
0.047133
-0.072438
-0.031562
0.067465
-0.030966
-0.036220
-0.050295
-0.048936
-0.034733
0.047073
-0.114264
0.125546
0.012983
-0.107230
0.066090
-0.061517
0.111495
-0.105662
-0.021508
-0.065597
-0.108191
0.093364
-0.068665
-0.035262
-0.029075
-0.034084
0.020365
-0.032604
0.022541
0.086245
-0.081834
-0.106371
-0.019628
0.110965
0.114822
0.089200
-0.110428
0.095218
0.129803
0.095824
-0.042071
-0.092580
0.073712
-0.012726
0.109686
0.098358
-0.001360
0.072439
0.038347
-0.122887
-0.002471
0.049482
0.107987
0.027998
0.112312
0.095188
-0.126174
-0.030793
0.126267
-0.056499
-0.036390
-0.084629
0.086484
-0.106307
-0.098142
-0.069285
-0.032579
-0.110365
0.109524
-0.090495
0.038403
-0.084696
0.135583
0.045191
-0.068386
0.015657
0.065543
-0.068349
-0.121286
-0.059253
-0.053393
-0.125132
0.130434
0.127901
0.113185
0.046923
-0.006455
0.079921
-0.098533
0.111428
0.071309
0.087956
-0.001289
-0.000457
-0.025835
-0.000421
0.079304
-0.080239
0.076951
-0.081940
0.026969
0.050147
0.091990
0.106025
-0.012443
-0.066468
-0.052271
0.098729
0.078154
0.051032
-0.125295
-0.099391
-0.115523
-0.046043
0.028672
0.057274
0.023401
0.112006
0.087212
0.068140
-0.061464
-0.116893
-0.046637
0.124397
-0.077295
0.138722
-0.001169
0.070307
-0.024210
-0.048809
-0.073502
-0.039533
-0.059696
0.035176
0.066407
0.097655
-0.044425
0.062411
0.112774
0.087043
-0.077989
0.068045
-0.005478
0.005616
0.006236
-0.029939
-0.127123
-0.060284
-0.093440
-0.044475
-0.101038
-0.117927
-0.005892
0.022021
-0.129561
0.050897
0.010634
0.118460
-0.126572
-0.092285
-0.129979
0.136284
-0.130089
0.033023
0.077766
0.002503
-0.019565
0.066660
0.088591
-0.020892
-0.019861
0.072076
0.083760
0.128552
0.030259
0.048699
-0.025877
0.059382
-0.052364
0.024647
0.068159
-0.082838
0.063498
-0.009785
0.071570
0.118504
0.127923
-0.024977
0.139854
0.075510
-0.008188
0.067226
-0.016039
-0.066693
0.113722
-0.124069
0.052802
0.030144
0.021857
0.130778
0.108664
0.086536
-0.095781
-0.127373
-0.020953
-0.096390
0.070693
0.077288
0.063168
0.041434
-0.044969
-0.069800
-0.007087
-0.130551
0.034919
-0.095073
-0.057541
0.074572
-0.055668
0.076121
-0.041006
0.037554
0.103996
-0.057617
-0.018639
-0.077352
0.041953
-0.058268
-0.050782
-0.070064
-0.014672
-0.091977
0.093061
-0.121025
0.116511
-0.017081
-0.047605
-0.062393
0.104373
-0.138314
-0.033728
-0.048914
0.116292
0.080815
0.058607
-0.073642
-0.109091
-0.082028
-0.012473
-0.010813
0.069954
0.010577
0.129117
-0.073155
-0.041963
-0.088729
-0.049546
0.003060
-0.061200
0.042562
-0.101229
0.061729
-0.102097
-0.066040
0.015503
0.101396
0.028106
-0.119057
-0.009626
0.118733
0.082119
0.120609
0.079169
0.062663
-0.094097
0.069643
-0.107026
-0.135773
-0.137046
-0.077969
0.121877
0.088754
-0.005570
-0.007374
0.003305
0.139874
-0.139830
0.115945
-0.115251
0.084363
0.074206
-0.015459
-0.047909
-0.048996
0.095868
0.111977
-0.106474
0.110099
-0.129732
0.091905
-0.019956
0.124187
-0.076486
-0.011451
0.121487
0.129295
0.007810
-0.037727
-0.126037
-0.015955
0.093387
-0.029015
-0.101966
-0.096429
0.095525
-0.138069
0.010027
0.066603
0.112758
0.130451
-0.092985
0.106682
0.079129
-0.095699
0.074910
-0.097607
0.139101
-0.104352
0.021823
0.079769
-0.111985
-0.102217
-0.085039
0.135095
0.123010
-0.020515
0.032424
0.105400
-0.044641
0.047817
0.040177
-0.030820
-0.137488
0.117153
0.051835
0.096836
-0.106921
0.108727
0.070512
0.116309
0.078979
-0.138874
0.074856
-0.126214
0.075259
0.072799
0.133213
-0.067668
-0.032853
-0.134317
0.073103
0.103350
0.026557
-0.001305
0.109755
-0.087372
0.136396
0.038309
0.045851
0.080099
-0.026649
0.027688
-0.126735
0.094599
0.118075
0.046607
0.109858
0.118953
-0.068473
-0.015383
0.102499
-0.074620
0.031623
0.095857
-0.042036
0.042635
0.077992
-0.082533
-0.119594
-0.044151
-0.125096
-0.026073
0.059154
-0.033284
0.028222
0.075519
0.062404
0.072078
-0.022340
0.108580
-0.092314
0.087226
0.060096
0.125777
-0.021003
0.081422
0.057355
0.000695
-0.107475
0.013157
0.082545
0.076203
-0.044719
0.051801
-0.090363
0.086861
-0.004135
-0.060229
0.071012
-0.132723
-0.009261
0.027532
0.049080
0.135312
-0.092134
0.060968
0.090084
-0.044736
-0.076464
-0.121760
0.027722
0.129620
0.025696
0.055176
0.062669
-0.079772
0.037169
0.074694
0.023817
-0.091054
0.022318
-0.047986
-0.006351
-0.076743
-0.043365
0.075488
0.051200
-0.124657
0.121481
-0.048149
0.007003
-0.041110
0.029178
0.024471
0.099476
0.080853
-0.012853
-0.086545
0.086074
0.128811
-0.015253
-0.137520
-0.005448
0.102425
0.112690
0.033071
0.001849
-0.034562
0.072507
-0.132357
-0.042205
0.110402
-0.062916
-0.117120
-0.126664
-0.075375
0.047481
0.120531
0.024835
-0.111830
0.074404
-0.019433
0.136474
0.098878
-0.091054
-0.080346
-0.037217
-0.096516
-0.116413
0.046327
0.087837
0.091208
0.087005
0.015625
-0.065586
0.085153
-0.103913
-0.098365
0.118289
-0.014355
0.061111
0.096216
0.104741
-0.035937
0.045265
0.017664
0.083581
0.067974
-0.127933
-0.040509
0.103149
0.006492
0.045002
0.058625
-0.090023
-0.047298
0.086434
0.108570
-0.059260
0.078042
0.082155
0.086583
-0.079175
0.024825
0.060960
-0.055019
-0.136484
0.104020
-0.073871
0.016096
0.016971
0.061616
-0.080353
-0.064618
0.000915
-0.110165
-0.090802
-0.004501
0.001532
0.096666
-0.130141
-0.047444
0.136548
0.074499
-0.119384
-0.053742
-0.101217
0.040194
0.012394
0.013319
-0.102573
0.100342
-0.028786
-0.037195
-0.036503
-0.010831
0.005525
0.007590
0.098164
-0.099173
-0.083653
-0.062199
-0.113748
-0.139169
-0.106935
-0.000145
0.131215
0.026043
-0.042721
0.072900
0.106517
-0.116234
0.108207
-0.100444
-0.064432
0.131960
-0.021000
-0.104079
-0.093475
-0.119181
-0.058255
-0.120285
0.051273
-0.020191
0.028263
-0.099951
-0.076029
0.114204
-0.097405
-0.019326
-0.041563
-0.019740
0.013707
0.116954
0.134692
0.056591
0.042287
0.054687
0.082477
-0.001018
-0.017134
-0.085844
-0.089344
-0.100827
-0.087082
0.049603
0.005743
0.037290
0.043384
0.072518
-0.007939
0.106012
-0.054696
0.115735
-0.120544
-0.047646
-0.037862
0.106280
0.017624
-0.028461
-0.089505
0.119827
0.095331
-0.007911
-0.023054
-0.035050
0.075995
0.022648
0.116296
-0.020765
0.108320
-0.042175
-0.058615
0.045673
-0.071603
0.013367
0.050462
-0.065228
-0.042300
-0.032231
0.065399
-0.077814
-0.061222
-0.129639
-0.063615
-0.113095
-0.061006
0.131744
0.069952
-0.136837
-0.001038
0.066921
-0.082801
0.050276
-0.059102
-0.082569
-0.089435
-0.128148
0.084017
0.087725
-0.007496
0.002443
0.036503
-0.138900
0.077444
0.070869
0.057519
0.061329
0.023990
0.086706
-0.048361
-0.035350
-0.127562
0.128149
0.114682
-0.027479
-0.130700
-0.120988
-0.072439
-0.046753
-0.041873
-0.134327
0.076848
0.036921
0.002355
-0.087903
-0.037985
-0.100140
-0.075418
0.049494
0.003294
0.106936
-0.062193
0.022558
0.126164
0.016947
0.087583
-0.124605
0.060058
-0.132473
0.007492
-0.076963
0.046153
0.031736
0.046146
0.095044
0.013314
0.041671
0.131309
-0.093929
0.081423
0.116131
0.133000
-0.029146
0.080548
-0.053659
0.090477
-0.115245
-0.008573
-0.017321
-0.047032
0.077459
-0.019439
-0.013830
0.012483
0.094875
0.076609
-0.021568
0.108218
-0.025036
-0.032655
-0.108356
-0.059151
0.080469
0.086649
-0.129741
0.054844
-0.060333
0.116440
-0.120989
-0.046535
-0.060059
-0.107890
-0.071542
0.119443
0.014855
-0.020285
0.035082
0.008606
-0.001496
-0.063957
-0.061111
0.121653
0.020669
-0.009886
-0.061325
0.134247
0.064268
-0.118100
-0.054462
0.020838
-0.131243
0.027174
0.116186
0.113834
-0.135535
0.009593
-0.138716
-0.045066
0.027387
-0.011550
-0.030085
0.082973
0.128107
0.128526
-0.078060
-0.057568
0.116616
-0.025574
-0.101129
0.000532
-0.027323
0.085333
-0.123907
0.100915
-0.088923
-0.019779
0.022665
-0.099905
-0.033947
-0.086523
-0.009345
0.096442
0.021265
-0.010305
-0.061532
-0.110510
0.106351
0.138496
0.091535
-0.090621
-0.125860
0.118496
-0.125308
0.024795
0.078948
-0.109772
0.082969
-0.135598
0.027406
-0.084084
0.004951
0.008378
0.111393
0.077165
-0.029710
0.125234
-0.131180
0.134847
-0.083010
0.080682
0.045116
-0.099690
-0.073389
-0.107124
0.054773
0.039330
0.021265
0.100968
-0.065890
0.107911
0.066999
-0.099906
-0.121226
-0.023644
-0.049130
-0.053613
-0.069064
-0.027930
-0.089235
0.055604
-0.065526
-0.130923
0.046838
-0.008804
0.050506
-0.057654
0.050153
0.032075
0.085123
-0.063831
0.000262
0.096272
0.049469
0.105146
-0.034454
-0.051362
0.012132
-0.044140
0.112907
0.105895
-0.096752
-0.109591
-0.019452
-0.054154
0.108545
-0.075853
0.078419
0.024407
0.084664
0.094064
0.106842
-0.042821
0.025185
-0.138919
-0.075758
0.094517
-0.128474
-0.042928
0.137945
0.069255
-0.075538
0.083943
0.067857
0.039906
0.069138
-0.114541
0.135528
0.122590
0.011139
-0.093216
-0.009267
0.059544
-0.028625
-0.052991
-0.023452
0.015742
0.003841
-0.104475
-0.008301
0.063691
-0.097886
0.052838
0.015116
0.072142
-0.089401
0.095804
-0.016155
0.029288
-0.057404
0.029869
0.049528
0.102762
-0.136875
0.092769
0.102717
-0.006297
0.128809
-0.019249
0.043025
-0.051641
0.076172
-0.105450
0.006816
0.059449
-0.082460
0.117230
-0.029799
0.012720
0.097676
0.002514
0.012198
-0.124012
-0.124114
-0.047519
-0.081178
0.013515
-0.064569
-0.044836
-0.071413
-0.136686
-0.112110
-0.107280
-0.090718
0.135854
0.053344
0.073581
-0.050338
-0.011559
0.078017
0.110402
0.085519
-0.081011
-0.050635
0.128124
-0.021030
0.029120
0.099165
0.018284
0.053779
-0.002702
-0.135254
0.122011
0.073576
-0.052078
0.114049
-0.116726
-0.019814
-0.086663
-0.003362
0.114499
-0.084554
-0.059060
0.110951
-0.088431
0.094409
0.109299
0.012143
0.051331
-0.056954
0.050234
-0.081230
0.044762
0.048615
-0.114985
-0.076969
0.101753
-0.072303
-0.073808
0.085917
-0.039937
-0.087464
0.002825
-0.009378
0.073463
0.069086
0.023535
-0.087898
0.121591
-0.034625
0.101590
0.037823
0.100445
-0.121468
0.051982
-0.067544
0.083177
-0.013118
0.009292
-0.042395
-0.004267
0.116410
-0.018947
-0.111869
-0.117367
-0.116821
0.048394
-0.033712
-0.115286
-0.004917
0.099310
0.122822
0.049831
0.090056
0.117968
-0.007522
0.100920
0.084869
0.004226
0.008945
-0.009319
0.097714
-0.063378
-0.042178
0.121061
0.042277
-0.013620
-0.034675
0.029429
-0.028778
-0.019375
-0.137993
0.000802
0.029342
-0.086064
-0.136575
0.064438
-0.085649
0.022200
0.112579
-0.052262
-0.060299
-0.006605
0.087761
-0.071527
-0.080544
-0.020001
-0.043438
0.050229
0.034916
0.010518
-0.001933
-0.004068
-0.063878
-0.079399
0.076423
-0.105690
0.118199
-0.079139
0.009967
0.056321
-0.029440
-0.011011
-0.024799
-0.091104
0.044590
-0.000542
0.050294
0.126411
0.022783
-0.083774
0.133916
-0.071775
-0.038197
0.041023
-0.056899
-0.133427
-0.071486
0.122505
-0.123810
0.025119
0.046659
0.102819
0.047139
0.044656
-0.063085
0.139392
-0.062163
0.113827
0.007969
0.135366
0.039928
-0.076691
-0.073876
-0.121882
0.053982
0.112787
-0.105362
0.061875
0.135295
-0.065409
-0.000046
-0.087127
0.034931
0.138020
-0.123546
0.015477
0.034858
-0.028452
-0.022811
-0.027203
-0.059867
0.019048
-0.107769
-0.009245
0.128163
0.111947
-0.047117
0.042232
-0.084315
-0.106922
-0.071916
0.064928
-0.108462
-0.126038
-0.112505
0.007253
0.037079
-0.106573
-0.000179
-0.103909
0.114558
-0.089602
-0.083699
0.028634
0.087171
0.095476
0.017005
-0.011503
0.021536
0.048905
0.008485
-0.116535
-0.027521
0.052201
-0.028140
-0.045145
0.020492
0.103930
0.125318
-0.108385
0.132925
-0.129071
0.096517
0.052031
0.132015
-0.129250
-0.038233
-0.001516
-0.089885
0.106992
-0.045611
0.108343
-0.076448
-0.053038
0.068651
0.032011
0.005331
0.077328
-0.124082
-0.011969
-0.026585
0.037651
0.107391
-0.088084
-0.113554
-0.140343
0.097262
0.138586
0.030978
-0.054288
0.137844
0.120203
0.107022
0.133631
0.130531
0.034948
0.068824
0.104096
-0.020242
0.029549
0.074039
-0.079122
0.009770
-0.035844
0.000031
0.060436
0.045104
0.045000
-0.137290
-0.080807
0.112278
0.099927
-0.085223
0.025748
0.028896
0.013479
0.044376
0.109911
0.075360
-0.029205
-0.136090
0.130245
0.102677
-0.113401
0.136890
-0.056218
0.069003
0.100108
0.126584
0.130850
-0.078075
-0.012187
-0.101271
-0.076563
-0.009751
0.121719
-0.119083
-0.109396
0.053760
0.129440
0.107375
0.042734
0.112953
-0.138006
0.019742
0.131490
-0.121628
0.086222
0.061915
0.075719
0.036935
0.044768
0.014222
-0.056136
-0.002128
0.059552
-0.029021
-0.022607
0.128296
0.094073
0.038114
0.100818
0.101412
0.066088
-0.026290
0.032319
0.051921
0.101461
0.137430
0.065201
-0.080149
-0.105769
-0.054403
0.123488
-0.095905
-0.128532
0.089533
-0.023821
-0.098453
-0.021611
0.139281
-0.071421
0.046422
-0.105126
-0.128796
-0.025658
-0.051900
-0.077103
-0.056144
0.075572
-0.095420
-0.060257
0.116874
-0.061942
0.011000
0.123074
0.106783
-0.005642
0.041242
-0.044231
-0.012924
-0.045607
-0.050645
0.015179
-0.017109
0.042590
0.014241
0.135593
0.139351
-0.065082
-0.128975
-0.105517
0.009226
-0.117072
0.006686
-0.106904
0.072712
0.118438
-0.061830
0.125278
-0.031355
-0.007853
0.067019
0.118599
0.107218
0.074658
-0.004282
-0.012169
0.097864
-0.040901
0.117032
-0.036654
-0.081161
0.085105
-0.133665
-0.097935
0.058950
-0.049866
-0.095178
0.100186
-0.017629
-0.010430
0.100188
0.050764
-0.135148
-0.134517
-0.000800
-0.012681
0.039044
0.046981
0.015325
0.013963
0.120379
0.137806
-0.033594
-0.103119
-0.106887
-0.052481
0.040016
0.092313
0.105325
0.131109
0.139580
-0.019545
-0.102003
-0.040624
0.082295
0.001600
-0.115641
0.125163
0.035678
0.052622
0.000571
0.100003
0.017184
0.015977
-0.070771
-0.089716
0.084939
0.013869
-0.132947
0.010402
0.056677
0.094494
0.075809
-0.118377
-0.042691
0.116520
0.043491
0.049802
-0.025537
-0.139568
-0.061315
0.135931
0.094504
0.088085
0.053218
0.038828
0.136581
-0.050875
-0.116329
0.125534
-0.073859
0.066690
0.030349
0.071073
0.060768
-0.093787
0.126448
0.018234
0.118230
-0.135209
-0.116215
0.111779
0.078197
-0.078733
-0.083623
0.016737
-0.007610
0.020352
-0.020215
0.080519
-0.044487
0.134047
0.120394
0.067701
0.108611
-0.116111
-0.129549
0.074645
0.113118
-0.066443
-0.006413
0.079580
-0.103652
-0.121217
0.034761
0.074799
-0.090850
0.005323
-0.014668
-0.008289
-0.123255
0.065587
0.074660
-0.129615
0.056612
0.011702
-0.066771
-0.130567
0.123633
0.060299
0.112857
-0.047319
0.023801
-0.117340
0.123512
0.025596
0.124703
0.046475
-0.089596
-0.033033
0.001148
-0.079803
0.106125
0.093666
0.123536
0.077767
-0.001468
0.060477
-0.058399
-0.132562
0.009872
0.065331
-0.073484
0.095777
0.101275
-0.076353
-0.088851
-0.118218
-0.012185
-0.050180
0.035713
-0.109281
0.020140
-0.128385
-0.061055
-0.138899
-0.018690
-0.102909
-0.115520
0.128118
-0.090271
0.086033
0.094948
0.020517
-0.051423
0.051278
-0.043782
-0.055702
0.100402
-0.012817
0.112611
0.039318
-0.079117
-0.130242
0.066820
-0.109368
0.036980
-0.016341
-0.037981
-0.026408
-0.135730
0.130322
0.055258
-0.026229
0.088215
0.129333
-0.061266
0.125350
-0.132831
-0.095976
-0.061942
0.005785
0.063095
-0.067485
-0.029469
-0.037571
0.029079
0.042310
0.127244
-0.076110
0.004108
0.004276
0.042367
0.063619
0.138531
-0.100048
-0.097090
0.048764
-0.019573
0.116977
0.135174
0.098190
0.130160
-0.059065
0.047440
0.089723
-0.036798
-0.058827
0.117568
0.092878
0.134135
-0.101473
0.058331
0.032014
-0.114062
0.002676
-0.083403
-0.004743
0.067752
0.107069
-0.018596
-0.045011
-0.036589
-0.073813
-0.124148
0.016542
0.092889
0.072148
0.079499
-0.111395
-0.026747
0.064587
0.041491
0.115742
0.110259
-0.082571
-0.003416
0.040360
0.033099
-0.088332
0.084277
-0.031602
-0.001127
0.018560
-0.009947
0.138213
0.034957
0.102261
-0.071378
-0.023651
-0.100974
-0.040744
-0.138984
0.070871
-0.013950
-0.060829
-0.062054
0.100360
-0.085243
0.052034
0.031145
0.138010
0.097423
0.134730
-0.095680
0.093269
0.068991
0.041408
0.099111
0.138716
-0.111027
0.111146
-0.023470
0.055329
-0.091738
-0.026310
-0.110020
-0.086000
-0.023124
-0.122110
0.063857
-0.003865
-0.082317
-0.008285
0.106075
0.096435
-0.087802
-0.083206
-0.077657
0.013574
0.088759
0.124681
0.139397
-0.129808
0.073593
0.138755
0.046418
-0.112948
0.079104
0.072750
-0.137565
0.066389
-0.050194
-0.114021
-0.054225
0.102571
-0.099240
0.040304
0.121952
0.031948
-0.056456
0.015166
-0.120086
0.106244
0.135976
-0.098861
0.054431
-0.032289
0.063120
-0.101585
-0.070654
0.092579
0.106933
-0.035882
0.023818
-0.016772
-0.095276
0.111609
0.103514
-0.058489
-0.025179
0.136384
0.002385
-0.030580
0.034593
0.071008
0.045098
-0.035234
0.055586
0.089734
0.118182
-0.095795
0.102791
0.003007
0.080552
0.116358
0.002703
-0.060627
-0.049619
-0.058446
0.121118
-0.020887
0.097177
0.049991
0.009064
-0.012232
-0.069816
-0.037365
0.078622
0.087997
0.008736
-0.005260
0.032554
-0.128190
-0.069354
-0.103700
-0.117122
-0.008286
0.043980
0.043831
0.050432
-0.135445
-0.111816
0.086237
-0.004611
0.011387
-0.116141
0.041750
0.066455
0.052085
0.039456
0.045179
0.076338
0.130028
0.008498
0.138251
0.125271
0.012493
-0.102794
0.093389
-0.050357
0.129318
0.115977
0.001860
-0.099477
-0.028641
-0.062739
-0.128649
-0.026036
-0.123577
0.133936
0.023469
0.033050
-0.064282
-0.067549
0.009210
-0.017390
0.010296
-0.026250
-0.090396
-0.051469
0.081025
0.111588
0.108787
0.114417
-0.021542
0.111076
0.128231
-0.106482
-0.061395
0.104527
0.138823
-0.066930
-0.094877
0.018983
0.138580
-0.093380
0.034380
-0.078178
0.118629
-0.005696
-0.125893
0.055358
-0.029892
0.029573
-0.093893
0.041629
-0.054191
0.011476
-0.064150
-0.084628
-0.029548
-0.011390
0.004404
0.084481
-0.013851
-0.003487
0.118518
-0.063517
0.055146
0.021693
0.124532
-0.013798
-0.015675
-0.128225
0.115930
0.011672
-0.134075
0.119250
-0.050654
0.028845
-0.042604
-0.047515
0.097678
-0.027573
-0.036934
0.053423
-0.100701
0.081937
0.086271
-0.043489
-0.086474
0.047279
0.115332
0.101946
-0.107752
-0.064389
-0.032856
-0.041627
0.115088
-0.007151
-0.130500
-0.094684
-0.138693
0.006567
-0.038888
-0.008644
0.053135
-0.118975
0.064327
-0.068822
-0.126198
-0.012587
0.134182
-0.095752
-0.038644
0.042008
-0.049151
-0.026976
-0.055051
0.049356
0.029046
-0.058925
0.089204
-0.072949
-0.030493
0.043872
-0.021659
0.066923
0.077813
0.123558
0.118063
0.092433
0.035827
0.090261
-0.094402
0.046304
0.105189
0.126817
-0.097849
-0.094308
0.029638
-0.018905
0.075447
0.129185
0.030742
0.031252
0.077073
-0.124521
-0.037423
0.112903
0.096194
-0.066702
0.059157
0.074164
-0.087789
-0.112622
-0.103575
-0.126677
0.096425
-0.136202
0.063521
0.100479
-0.007899
-0.133782
-0.016402
0.042679
0.088971
0.094692
-0.117602
-0.086888
-0.099318
0.110714
-0.124437
-0.103411
0.071985
-0.081935
-0.030338
0.013704
-0.048267
-0.105242
-0.080434
0.111785
-0.099055
-0.104378
0.071214
-0.096254
-0.088725
0.080600
-0.095303
-0.133629
0.063082
-0.032889
0.121975
0.030273
-0.042936
0.134921
0.130074
-0.062583
-0.067625
-0.049511
0.113482
-0.074232
0.044419
0.023876
0.102862
-0.094392
-0.003479
-0.119194
-0.093499
0.110010
0.039606
-0.065506
0.098565
0.047491
-0.038059
0.070717
0.069056
0.056508
-0.029211
-0.067463
-0.126421
0.072102
-0.076262
0.001173
0.090770
-0.101583
-0.086153
-0.072035
0.126891
-0.126905
0.111501
0.036886
-0.027592
0.061368
-0.023276
0.115353
-0.047214
-0.020280
0.021876
-0.076424
0.066691
-0.043081
0.113561
-0.060831
-0.014120
0.135366
0.020588
0.087927
-0.108510
-0.078045
-0.079403
0.034435
0.025074
-0.123679
0.066924
-0.012112
-0.102709
-0.027711
0.033939
-0.089231
-0.123123
-0.091220
0.053163
-0.017848
-0.070745
-0.119402
0.135886
-0.043837
0.028722
-0.115143
0.004133
-0.049319
-0.119676
0.111922
0.137458
0.084181
0.104646
-0.027574
0.110601
0.028841
-0.114557
-0.128820
-0.028600
0.007046
0.054573
0.096074
-0.095747
-0.045704
0.046371
0.122929
-0.048671
0.116742
-0.119245
0.056762
0.100292
0.000554
0.048001
-0.043255
0.042577
-0.015592
-0.019377
0.077347
-0.119185
0.014288
0.111209
0.064759
0.104401
-0.051997
-0.092528
0.057274
0.027475
0.024287
-0.102422
0.107331
0.103548
-0.029959
0.040898
0.057880
0.068297
-0.075967
-0.081349
-0.075164
-0.103326
-0.012554
0.063067
-0.038678
-0.028111
0.053156
-0.037180
-0.035684
-0.119215
-0.074789
-0.023301
-0.018610
-0.013485
0.130637
-0.083287
-0.087068
-0.102476
-0.050534
0.069380
0.023969
0.014506
-0.071802
0.122159
0.135131
-0.053436
0.129775
0.058827
-0.054468
0.039444
0.024858
-0.116410
-0.055337
0.096410
-0.084584
-0.094794
-0.007281
-0.035973
0.131402
0.004362
-0.075602
0.075104
-0.114783
0.011230
-0.087617
-0.135213
-0.061723
0.116857
0.094326
-0.027573
-0.035383
0.008610
-0.000883
-0.020146
-0.049813
0.085104
0.128714
0.008827
-0.089904
-0.020005
-0.034148
-0.080460
0.031713
0.021320
-0.059677
-0.124770
0.103587
-0.004959
0.036289
-0.118066
0.041214
-0.121632
-0.060037
-0.110809
0.038374
0.129403
-0.084383
-0.014815
-0.044032
0.089420
-0.132132
-0.051180
0.134550
0.055882
-0.027610
0.135314
0.051441
0.061255
0.027128
0.018526
0.090048
0.115331
0.000975
-0.048417
0.012792
-0.012078
-0.099599
-0.074550
0.132844
0.134919
-0.115526
-0.019115
0.131809
-0.055737
0.095417
-0.120065
0.037984
-0.035816
-0.035476
0.020241
0.009354
-0.052521
0.010657
-0.075121
0.100167
-0.070855
-0.085015
0.093348
0.127768
-0.017685
0.030127
-0.065445
0.087242
0.029641
0.001272
0.055532
0.009096
-0.043064
-0.021200
0.027750
0.105060
0.071085
-0.087511
-0.048482
-0.062263
0.090107
-0.115079
-0.035071
-0.032843
0.108960
0.056004
-0.109112
-0.102958
0.031479
-0.034871
0.001515
-0.120824
-0.052959
-0.055813
-0.081240
0.093728
-0.053410
0.001626
-0.061856
0.107903
-0.042556
0.081191
-0.135648
-0.034644
0.038367
-0.109473
-0.127181
-0.109637
0.018390
-0.003203
0.068171
-0.079716
0.080960
0.100766
-0.082511
-0.090450
-0.123156
0.037676
0.087564
0.052241
-0.126642
-0.017115
-0.128849
0.101172
0.083646
0.057727
-0.106998
-0.083841
0.089910
-0.135308
0.107011
0.118731
0.122997
-0.122273
0.111738
-0.139867
0.002602
-0.114910
0.018641
-0.030255
0.093703
-0.132414
0.035660
-0.016969
-0.078260
-0.009033
-0.065625
-0.101215
-0.096800
0.105281
-0.129958
0.073475
-0.052951
-0.059298
-0.009445
-0.027464
0.131612
-0.034849
-0.042035
0.002376
-0.131781
-0.051483
-0.090110
-0.056729
-0.114025
-0.061022
0.059896
0.055593
-0.093956
-0.044227
-0.059941
-0.060620
-0.127367
0.090222
0.099335
0.118897
0.029906
-0.060116
-0.000143
0.125704
-0.098808
-0.031468
-0.089533
0.005737
-0.126222
0.028357
0.047353
0.134686
0.050158
0.025780
0.094989
0.095414
0.003477
-0.098803
-0.084677
-0.115247
0.046814
-0.132871
0.085119
0.068826
0.105459
0.059584
0.054843
-0.040065
0.055257
0.061312
0.010886
0.059082
-0.067062
0.076947
0.052126
-0.046484
0.039756
0.010215
-0.120860
0.005586
0.139227
0.135711
-0.020140
-0.083227
0.028471
0.003331
0.129473
0.017683
-0.087034
0.121980
-0.005738
-0.039254
0.091915
0.094589
0.061781
0.067255
0.050250
0.018178
0.131761
0.101540
-0.081422
0.043994
-0.014506
0.003614
0.071944
-0.018869
-0.104396
-0.091913
-0.011839
-0.032548
0.030598
-0.055382
-0.043953
0.114723
0.066295
-0.081523
0.053527
0.076844
0.074079
-0.057448
-0.064042
0.082666
0.112404
-0.039319
0.018620
0.095610
0.104283
-0.019759
0.027161
-0.051854
-0.135869
0.101664
0.009861
0.083479
-0.058447
-0.038942
0.056767
0.017542
-0.124074
0.067314
-0.055297
0.084017
0.066334
-0.113442
-0.081139
0.043924
-0.082101
0.007280
0.096342
-0.113592
-0.018989
-0.084899
0.003313
0.044646
-0.002198
0.116290
0.081410
-0.033105
-0.082765
0.018148
0.114412
-0.102820
-0.005899
0.046174
-0.069000
0.065770
0.094904
-0.087978
-0.136862
0.085170
-0.099205
-0.066458
-0.005755
-0.040103
0.072328
0.000150
-0.060159
-0.093347
0.095019
-0.089834
0.138075
0.035599
-0.072186
0.044751
-0.096609
-0.064884
0.083368
0.125129
-0.110769
0.010660
0.020060
-0.028750
-0.071377
0.107741
0.103676
0.070435
0.101303
-0.009121
0.127170
0.130945
0.093557
-0.012693
-0.105019
0.108111
0.054871
0.022727
0.106478
-0.047962
0.058455
0.069957
0.035322
0.137424
-0.093364
0.056527
-0.048575
0.049162
0.135151
-0.114981
-0.108024
0.109920
-0.067106
-0.007811
-0.012206
-0.084771
0.013451
-0.055347
-0.022489
0.039073
0.104283
0.123469
0.080998
-0.066057
-0.102050
-0.135272
-0.072733
-0.048200
-0.131694
-0.057092
-0.039441
-0.138198
0.130958
-0.115838
0.009090
-0.035543
0.004123
0.011635
-0.086997
0.113023
-0.068476
0.105915
0.025445
-0.007459
0.126807
0.035225
0.066623
0.024800
0.133123
-0.044299
-0.018900
0.123278
-0.028726
-0.107804
0.006120
0.021680
-0.077210
-0.135588
0.074264
-0.069996
-0.073497
0.059139
0.054588
0.107354
0.072255
0.122420
-0.042222
-0.115734
-0.041154
-0.014873
0.129596
-0.008496
0.063649
0.040214
-0.122490
-0.095666
-0.124555
-0.026198
0.029427
-0.026699
0.063381
0.026283
-0.016141
0.070635
-0.067444
-0.122171
0.068581
0.006776
0.105620
0.104776
-0.040527
0.117405
0.031116
-0.094212
-0.033354
-0.016342
-0.065378
0.006161
-0.048652
0.056583
-0.000277
0.005280
-0.138545
0.074465
0.090234
-0.132647
-0.135813
0.064843
-0.113407
-0.034509
-0.129092
-0.038794
-0.096049
-0.084910
0.133027
-0.132064
0.078622
0.127291
-0.139123
-0.065926
0.052201
-0.136955
0.020895
-0.105888
0.031447
-0.125958
0.057950
-0.032607
0.128165
0.003146
-0.093456
-0.007580
0.112372
-0.008652
0.106111
-0.061731
-0.113235
-0.073725
-0.126530
-0.117264
0.013472
-0.080279
0.091357
-0.049531
-0.135055
-0.110329
0.067831
-0.054204
-0.065554
-0.060017
0.010706
-0.123253
-0.058711
0.117789
-0.088844
-0.044275
0.034990
0.131993
-0.013895
-0.116665
-0.004438
-0.104415
-0.126679
-0.044983
0.022523
-0.057187
0.043357
0.070380
-0.102234
0.042980
-0.053009
-0.124700
-0.117724
-0.002821
0.076907
0.100329
0.075516
0.120106
-0.041106
0.097007
-0.076138
0.085054
-0.125851
0.133628
0.070181
-0.013349
0.009520
-0.078364
0.065378
-0.055626
-0.068298
-0.051032
-0.049668
0.000404
-0.116037
-0.012752
-0.064132
0.030208
-0.136819
-0.137120
0.053860
0.027487
-0.041634
0.040108
0.125317
0.069462
-0.133793
-0.060173
0.069479
0.055219
-0.088032
-0.039876
-0.105179
0.064861
-0.081027
0.027875
0.082885
-0.137750
-0.122541
-0.067104
0.027602
-0.036685
-0.031162
0.024514
-0.001351
-0.010248
0.128258
-0.041468
-0.057182
-0.035569
-0.036701
0.108517
-0.090393
0.138347
0.004120
-0.113291
0.064536
0.038342
0.042706
-0.099663
0.085302
0.038685
0.041210
0.119072
0.011105
-0.040852
0.055224
-0.122560
0.039535
0.099674
0.074155
0.052876
-0.032048
-0.122944
-0.057708
-0.047829
0.050989
0.132285
-0.117203
-0.018045
-0.037853
0.112409
0.070186
-0.087782
0.042650
-0.052466
-0.093376
0.135763
0.090608
-0.007945
0.062238
-0.035666
0.049821
0.036395
0.013062
0.065347
-0.098204
-0.040553
0.094071
0.009912
-0.094571
-0.001458
0.092260
-0.081729
0.087133
-0.114716
-0.107412
0.095548
-0.021001
0.057630
-0.067783
0.016469
0.079446
0.100201
-0.007235
0.061304
0.125219
-0.067160
-0.133733
-0.092172
-0.121526
-0.133362
0.084112
-0.134081
-0.057385
0.101696
0.023348
-0.026616
-0.059401
-0.081725
0.074815
-0.130433
0.105492
-0.059784
0.056012
-0.102880
-0.003323
-0.130129
0.127856
-0.069085
0.123895
0.118421
0.052809
-0.050290
0.113689
-0.017501
-0.031876
0.045808
0.080377
-0.030128
0.085581
-0.074150
-0.105939
-0.120336
-0.138005
-0.013240
0.080830
-0.058432
-0.016025
-0.106529
-0.119507
-0.058937
-0.111650
0.021411
0.114107
0.099836
-0.108707
-0.086458
-0.020355
-0.139884
0.128183
-0.005554
-0.033416
0.065866
0.120407
0.078469
-0.024308
0.085146
0.002940
-0.008055
0.079161
0.131433
0.014120
-0.102811
0.025302
0.108118
0.135653
0.081420
-0.093544
0.092149
-0.098214
-0.133471
-0.107186
-0.029490
0.102494
-0.051009
0.101405
-0.056250
-0.070685
0.069621
0.104977
-0.058003
0.080696
-0.117472
0.003740
0.060828
0.071761
-0.040778
-0.047861
-0.110188
-0.097633
-0.046304
-0.082122
-0.027793
0.066177
-0.113664
-0.067662
-0.008255
-0.001148
0.102024
-0.134921
-0.135893
0.117051
-0.124818
-0.025140
0.129952
0.088449
-0.007871
0.135257
0.122428
-0.126407
0.061859
0.100681
-0.025356
-0.101548
-0.087317
-0.022224
0.131311
0.040051
0.115184
-0.082206
0.021484
0.085911
0.061736
0.049627
-0.008431
0.047508
0.139197
0.107833
-0.110519
0.131485
0.122212
0.047636
-0.074035
-0.097225
0.049522
0.050999
-0.019690
0.089886
0.092610
-0.075635
-0.035419
-0.127001
0.018277
-0.064716
0.029404
0.103658
-0.045512
0.084336
0.061415
0.112367
0.128682
0.112321
-0.053542
-0.111652
0.131903
-0.097431
-0.077580
-0.034051
0.023872
-0.078965
-0.001840
-0.028798
-0.130936
-0.139084
-0.019182
0.013556
-0.045598
0.137449
-0.125904
-0.059757
-0.018145
-0.065510
0.090631
-0.030394
0.068679
-0.008333
-0.090563
-0.088628
0.069389
0.105034
-0.021803
-0.047750
-0.024814
0.047023
0.053606
0.067435
0.091436
0.004992
0.106325
0.133473
0.033146
-0.036275
0.138103
-0.114723
-0.120605
-0.067341
-0.023857
0.000919
0.011520
-0.061436
0.016911
-0.064621
0.032548
0.005782
0.007827
-0.030933
-0.111274
-0.032039
0.093211
0.085683
0.046761
0.086535
0.061729
0.076327
-0.127555
0.089142
-0.059687
0.136479
0.042631
-0.083906
0.004302
-0.083445
-0.067070
0.140078
0.114683
-0.098026
0.046351
-0.093958
0.098170
-0.077184
0.139829
0.036722
0.047141
-0.137035
-0.112003
0.042117
-0.038314
0.130237
0.114816
-0.057353
-0.026740
-0.090287
-0.115084
0.037266
-0.038502
0.069156
-0.033482
0.126445
-0.022547
0.065875
0.062419
-0.053579
-0.098264
0.046500
0.137274
-0.011803
-0.059645
-0.090879
0.061673
-0.112334
-0.134291
-0.110128
-0.078103
-0.006973
0.057177
0.108256
-0.010156
-0.041430
0.042206
-0.061891
0.135257
0.031158
0.104864
0.114386
0.132380
-0.086727
0.042932
-0.116322
0.049769
0.037614
0.048606
0.104908
0.017895
-0.011699
0.094065
0.114965
0.117875
0.061168
0.122913
0.063648
0.025376
0.126765
-0.044000
-0.041630
-0.094179
-0.038219
-0.023555
-0.105689
0.040239
-0.063976
0.123835
-0.034601
0.067310
-0.006392
-0.019542
-0.029182
-0.052118
0.016438
0.082892
-0.140127
0.126698
-0.022964
-0.137412
-0.027620
-0.001733
-0.060145
0.050589
-0.072940
-0.130118
-0.026669
-0.113517
0.062831
0.081830
0.084888
-0.132381
0.111829
0.105708
0.028296
0.033795
-0.036560
0.011328
0.128545
-0.068305
0.022202
-0.011040
0.024849
0.024343
-0.029616
-0.035740
-0.032629
0.065503
0.003725
0.063730
-0.093744
-0.139174
0.087915
0.119456
0.041985
0.119953
-0.085633
0.096508
0.032417
-0.012047
-0.076593
0.089819
0.122689
0.033100
0.115301
-0.009719
0.057299
-0.043377
-0.036971
0.121029
-0.043543
-0.045610
-0.097555
0.080878
-0.134752
0.052856
-0.003664
0.018682
-0.059046
0.002306
-0.124290
-0.038260
0.030853
-0.021808
0.069559
-0.008555
0.058533
-0.057319
-0.074932
-0.101086
0.029871
-0.085458
-0.070232
0.115611
0.013869
-0.000153
-0.038692
0.073932
0.085008
-0.099994
0.094282
-0.053113
-0.001418
-0.039433
0.050179
-0.065988
-0.108220
-0.012889
-0.059230
-0.041354
0.112707
-0.023261
0.130108
-0.005194
-0.115579
0.022710
0.121202
-0.124982
-0.032936
-0.019141
0.020371
-0.034650
0.067400
0.085699
-0.077414
-0.002866
-0.117139
-0.013911
-0.116413
0.072114
-0.059015
0.001002
0.055890
0.040544
-0.076157
0.043686
-0.018807
0.121556
-0.067051
-0.126188
0.057106
-0.038296
0.126998
-0.026115
0.110259
-0.043601
0.092266
0.039130
0.009780
-0.082903
0.102503
-0.119564
-0.133572
-0.020908
0.136612
0.013374
-0.114526
0.080993
-0.056525
0.087626
0.021181
0.061970
-0.013150
-0.039693
0.100573
-0.084778
-0.002106
-0.072740
0.037811
0.020257
0.139894
0.051456
0.085293
0.122247
-0.033184
-0.089115
-0.004462
0.049710
-0.122619
0.028934
-0.112241
-0.070789
0.118313
-0.064316
-0.017661
-0.029978
-0.094841
0.025338
0.043906
0.004991
-0.065802
0.134938
0.031392
0.059216
0.112312
-0.064770
-0.056045
-0.100829
-0.071363
0.133317
0.046968
0.041410
0.087876
-0.006715
0.095291
-0.059740
0.139850
-0.084230
0.084069
-0.135104
0.008453
-0.042648
0.050482
0.080611
0.038338
-0.116873
0.072758
0.024888
-0.079512
-0.129937
-0.027405
0.069040
-0.116639
0.000709
-0.045031
-0.137697
-0.054131
0.009957
0.021781
-0.073426
-0.030837
0.055024
0.052145
-0.118444
-0.123589
0.060233
-0.039822
-0.064933
0.099178
-0.034174
0.126540
0.032306
-0.043028
-0.093289
0.016981
0.129056
-0.027350
-0.002430
-0.036244
-0.001384
0.122021
-0.088679
-0.048829
0.072063
0.079216
0.070894
0.061495
-0.101198
0.068748
-0.076583
-0.000031
0.129264
-0.101780
-0.048643
-0.041855
0.084067
-0.117418
0.092282
0.051481
-0.135391
-0.022236
-0.030134
0.135895
-0.082066
0.029330
0.076744
-0.077683
0.079957
0.015307
0.007449
-0.056643
-0.122349
-0.052167
-0.095093
0.063574
0.096709
0.035627
0.053911
0.005043
-0.136480
0.058726
-0.045946
-0.001980
-0.061911
-0.113553
-0.125942
0.011351
0.102439
0.005350
-0.026182
-0.027703
0.082355
0.031194
-0.137677
0.018025
0.111613
-0.066463
-0.114259
0.087874
0.122720
0.067561
-0.053894
-0.010193
0.133138
-0.062258
-0.052668
0.004536
0.085706
-0.139575
-0.039708
-0.121184
0.088803
-0.103086
-0.007091
0.007933
-0.015871
-0.006880
-0.134900
-0.029606
-0.109396
0.099683
0.127679
0.061797
-0.063427
0.030264
-0.033306
0.014841
-0.093218
0.129983
0.084474
0.059526
-0.106732
0.081664
-0.131439
0.022381
0.043926
0.107600
-0.099184
-0.055136
0.114155
0.112734
0.011701
0.092297
-0.036966
-0.094967
-0.059010
0.111337
0.107827
-0.103852
0.096319
0.077508
-0.076766
0.039928
0.086229
0.108836
-0.114235
-0.089313
-0.055683
-0.099185
0.047077
0.074711
-0.011084
0.089247
-0.137132
-0.048381
-0.093371
-0.086113
-0.097427
-0.105602
0.136358
-0.041536
0.053140
0.042323
-0.079443
0.053033
0.122406
0.015521
-0.072155
0.039261
-0.072119
-0.010854
-0.107711
0.089488
-0.048021
-0.059897
-0.025790
0.008678
-0.018701
0.116244
-0.088046
0.014078
-0.016613
0.104603
-0.068554
-0.039634
-0.114441
0.043761
0.104336
-0.029465
0.133625
-0.091842
0.058226
0.015159
-0.033691
0.022223
-0.054385
0.019161
0.092818
-0.138129
-0.111303
-0.048372
-0.038093
0.068816
0.115573
0.006934
-0.073519
0.085022
0.075845
0.100502
-0.114593
0.137431
-0.126906
0.047155
0.102935
-0.097678
0.043633
-0.110889
-0.077454
0.103948
-0.103524
0.057689
0.057021
-0.134215
0.084119
-0.073738
-0.007803
-0.060515
0.063694
-0.037810
0.090157
0.128418
0.109427
0.000110
-0.098015
-0.056876
0.054600
0.133012
-0.016568
-0.078954
0.050952
0.025253
-0.037805
0.004063
-0.079634
-0.004744
0.006401
0.026595
-0.130159
0.087721
0.027778
0.020050
-0.022044
0.119599
0.004404
-0.050785
-0.100707
-0.021228
-0.058206
-0.072755
-0.101199
-0.096800
0.058565
0.103150
-0.029549
-0.005905
0.134313
0.009986
-0.108487
0.014143
-0.066391
-0.094287
-0.126421
0.023070
0.086532
0.023856
-0.091195
-0.041234
0.053290
0.011328
-0.104239
-0.033448
0.080359
0.077273
0.057826
-0.104981
-0.119135
0.031231
-0.027792
0.008787
-0.100340
-0.064995
-0.070851
0.057665
-0.024292
-0.016047
0.056195
0.107993
-0.046375
0.073267
-0.002559
-0.017510
0.135919
-0.091596
-0.086958
-0.103840
-0.068376
-0.101332
-0.090946
-0.109783
-0.026101
-0.132202
0.100508
0.129398
0.131802
0.093473
0.109724
0.029341
-0.105690
0.066519
0.137529
-0.023593
-0.108543
0.112383
-0.032663
0.069680
0.057877
0.047275
-0.063848
0.061628
-0.010410
-0.004699
0.007768
-0.064949
-0.131069
-0.009979
0.092677
-0.017940
0.079431
0.110877
-0.135962
-0.041587
0.032636
0.074373
0.031212
-0.005236
-0.136352
0.069828
-0.020884
0.026234
0.133152
-0.017958
-0.058190
0.100004
-0.108929
-0.022214
0.013107
0.024426
0.029167
0.131720
-0.069096
0.050557
0.069494
0.112915
0.021322
0.057832
0.003004
-0.117367
-0.105407
-0.046032
0.063639
-0.042283
-0.097545
-0.135618
0.055724
-0.116389
0.110171
-0.076381
0.035010
0.072545
-0.069480
-0.002356
0.114937
0.003976
0.078621
0.087920
0.047946
-0.126894
-0.036698
-0.132994
-0.092615
-0.013644
0.062089
-0.099927
-0.131795
-0.073090
0.066204
0.107417
-0.059710
-0.071855
0.053392
-0.061243
0.104835
0.086325
0.108642
0.018640
-0.044476
0.107985
0.139086
0.019424
0.028051
-0.118017
-0.024550
-0.123502
-0.012441
0.109358
-0.094830
0.033557
-0.069423
-0.040886
-0.009368
0.065144
0.094068
-0.011059
-0.105755
0.003325
-0.127776
0.076778
-0.045271
-0.089089
-0.125057
-0.089721
-0.001247
-0.002981
-0.083582
-0.064887
-0.011051
-0.035439
-0.060091
0.043904
-0.022944
-0.121596
-0.123565
0.087609
-0.051533
0.112387
0.004194
-0.070407
0.047687
0.065439
0.069246
-0.098019
0.054300
0.122280
0.116059
0.133500
-0.121457
-0.039780
0.038089
-0.001447
0.040226
-0.003365
-0.095573
0.135959
-0.118177
-0.098462
0.093240
0.119181
-0.075681
-0.057920
-0.075235
-0.074898
-0.109423
-0.072425
-0.110489
-0.033409
-0.049809
-0.006330
-0.116337
0.067201
0.134922
0.134503
0.000960
0.001257
-0.133193
0.082933
-0.064124
0.096445
0.072436
-0.088187
0.090431
0.012957
-0.014540
-0.050715
-0.056961
-0.109582
-0.100979
0.116727
0.023499
0.000717
-0.114910
0.136214
-0.031490
0.092435
0.038461
0.010779
0.101799
-0.070106
0.025888
0.046621
0.105720
0.136308
-0.060126
-0.094311
0.109415
-0.095524
0.019866
-0.101648
-0.061891
-0.041053
0.139521
-0.099580
0.089668
0.098529
-0.072247
0.085820
0.027039
-0.085630
0.071242
0.066034
0.045779
-0.077393
0.107098
0.130661
-0.067842
-0.002195
0.011060
0.069650
0.085493
0.053051
0.041623
0.113052
-0.037875
-0.137722
-0.012715
0.068469
0.136998
0.088573
0.134480
-0.021435
0.097826
0.064515
0.046989
-0.094687
-0.119618
0.128045
0.093182
-0.123166
-0.055269
-0.054412
0.058100
0.055544
-0.066157
-0.019175
-0.127360
0.023151
-0.122696
0.126502
-0.039406
-0.056913
0.105118
0.125145
0.031114
-0.022317
-0.042497
-0.097507
0.055273
-0.094774
0.128022
0.012116
-0.092703
-0.119161
0.108492
0.117221
0.121974
0.014616
0.003281
-0.084054
0.105154
0.087504
0.041589
-0.139140
0.004625
-0.068720
-0.085175
0.003000
0.093587
0.029389
0.121663
0.009910
-0.014446
-0.093233
0.046264
-0.028811
0.012927
0.032499
-0.092524
0.108959
-0.119277
0.095514
0.131422
0.066154
-0.068288
-0.013919
-0.077409
-0.036602
-0.007003
-0.008239
-0.009705
-0.114607
0.102352
0.111434
-0.064125
-0.074263
-0.047608
-0.023682
0.132421
-0.063025
0.103065
0.136194
0.051251
0.098486
0.049265
0.123964
-0.121237
-0.103628
-0.001986
0.096135
-0.065723
-0.044503
0.091173
-0.127996
0.078107
-0.017396
0.099949
0.088188
-0.057907
-0.068615
-0.048388
-0.093497
-0.019795
-0.031890
-0.000198
-0.137163
-0.035342
-0.004850
-0.099510
0.074006
-0.046474
0.132103
0.116364
-0.081499
-0.089559
-0.009562
0.125312
0.125423
-0.133398
0.117187
-0.058959
-0.014239
-0.108338
-0.071632
-0.054514
-0.130209
0.008831
0.020854
0.111022
0.088757
0.125864
0.002660
0.135788
-0.083653
0.043444
0.114538
0.124921
-0.063073
-0.055820
0.012623
0.008813
0.006360
-0.103985
0.074786
0.043061
0.099771
0.088092
0.030026
-0.091195
0.122062
0.034933
-0.119088
0.020996
0.054545
-0.091474
0.118509
-0.109039
-0.139118
-0.109180
0.046072
-0.018630
-0.055188
-0.054223
-0.111647
0.069050
-0.128223
-0.053155
0.100982
0.046973
-0.119377
0.001804
-0.047602
-0.074449
0.134784
0.074024
0.119784
0.071031
-0.041898
0.051202
-0.069730
0.087327
-0.021304
-0.027400
0.095862
-0.121634
-0.015472
-0.003994
0.129991
0.111048
0.044974
0.003183
0.071445
0.017408
0.073970
0.059868
-0.129961
0.075727
0.098072
0.010245
0.094674
0.124342
0.050751
-0.100267
0.112573
0.087992
-0.035292
-0.044029
-0.134385
-0.086143
-0.137445
0.075704
-0.030756
0.082515
-0.067694
-0.054286
-0.026337
-0.022820
0.099905
-0.033724
0.023944
0.017582
0.066611
0.129307
0.108333
0.102931
-0.063143
-0.036806
-0.000750
0.062195
-0.022143
0.106162
0.061253
0.057180
0.004753
0.110234
-0.023691
-0.036124
-0.108500
0.137271
-0.004908
0.074365
0.068175
0.028178
-0.121169
0.120930
-0.097438
0.055204
-0.136913
0.116097
0.104266
0.006544
0.137539
-0.061432
-0.089014
0.099219
0.000185
0.118604
0.072757
-0.110315
0.066797
-0.133610
0.002780
-0.139313
-0.115158
0.119924
-0.099787
0.094306
0.075309
0.033271
0.052863
-0.087369
0.078975
-0.009313
0.068561
0.006387
0.139969
-0.032632
0.043404
-0.096281
0.023367
0.122545
-0.128425
-0.089188
-0.021031
-0.123068
-0.079462
-0.069536
0.127536
-0.119253
-0.036288
-0.030892
0.099285
0.069269
-0.013891
0.011884
-0.041497
-0.111225
-0.065045
-0.075434
0.128882
-0.014252
0.050507
-0.028829
-0.081429
0.016261
-0.102264
0.021399
0.072303
-0.112093
-0.124278
0.032605
0.110546
-0.058998
0.106962
-0.076305
0.092091
0.087729
0.000157
-0.050643
0.127261
-0.130461
-0.095756
-0.051943
-0.136611
0.137822
0.118356
-0.084926
-0.031829
0.108749
0.020021
0.087059
0.049415
0.065145
-0.096867
0.009061
-0.016502
-0.001350
0.033476
-0.070755
-0.084074
0.046045
-0.071778
-0.115741
-0.038133
-0.070976
-0.039826
0.033010
0.038927
-0.060649
-0.087039
-0.031687
0.029086
0.016511
0.040945
0.060739
0.041820
-0.006359
0.008259
-0.110357
-0.095573
0.103234
0.121021
0.008079
-0.070958
0.105056
-0.042576
-0.093596
-0.135774
0.020632
0.121426
0.122002
-0.067303
-0.108932
-0.066334
0.068362
-0.126849
0.087063
-0.015070
0.091278
-0.124545
-0.109492
0.082341
0.079282
-0.111555
-0.027245
0.029502
0.086805
0.019383
0.079894
-0.072162
0.014028
0.056923
0.109856
-0.026458
0.139523
0.020855
0.002870
0.044468
0.050583
-0.056777
-0.130464
-0.096880
0.078830
0.076286
-0.136416
0.131552
0.003307
0.084616
0.014292
0.045360
-0.046416
-0.035047
-0.088226
-0.017850
0.089186
-0.119734
-0.020489
0.006580
-0.013957
0.050359
0.008484
0.073182
0.120426
0.066009
-0.043964
0.049252
0.008097
-0.014876
0.082418
-0.131647
0.102750
0.131485
-0.071159
0.044133
0.098798
0.095087
-0.018582
-0.015498
0.006240
0.093684
-0.033493
-0.001018
0.125557
-0.076419
-0.028631
-0.032046
0.128683
-0.116302
-0.037960
-0.112533
0.034230
-0.048615
0.055808
0.078263
0.067104
0.011090
-0.082069
-0.089822
-0.061756
0.085978
-0.134380
-0.128136
0.044628
0.047620
-0.048802
-0.014579
-0.020652
0.107763
0.017607
0.137349
0.023738
-0.029218
0.119991
0.020001
0.051950
-0.062788
-0.133908
-0.121730
0.133672
0.073440
-0.099487
0.130439
-0.097551
0.093748
-0.029107
-0.113640
0.111165
0.034494
0.107494
-0.057211
0.019306
-0.053650
-0.054092
0.134699
0.058736
0.071557
-0.016606
0.044378
0.112546
-0.022518
0.122902
0.138413
-0.057700
-0.133464
0.052405
-0.035115
-0.130622
-0.128998
-0.074460
-0.105319
0.041948
-0.128153
0.108608
0.020271
0.048338
-0.071201
0.064300
0.115062
-0.043522
-0.023626
-0.105962
0.076727
-0.005063
-0.108781
0.004741
-0.122105
-0.037691
0.129545
-0.027105
0.037803
-0.109323
-0.062759
-0.088639
-0.043186
0.070458
-0.020016
0.025032
-0.036831
0.010849
0.127658
0.107488
0.094744
-0.006630
-0.007321
0.033313
0.103464
0.040528
0.025149
-0.013129
-0.031175
0.014652
0.048056
-0.052198
0.030983
-0.012423
0.121940
0.059770
0.068837
0.133617
-0.018665
0.081912
0.127844
0.092188
0.009753
-0.067610
0.005466
-0.045770
-0.074115
-0.074052
-0.003461
-0.001575
-0.045299
-0.076073
0.035211
-0.060624
-0.102882
0.114665
-0.016438
-0.054453
0.129872
-0.125170
0.029980
0.130695
-0.045968
-0.090745
-0.062664
0.003443
-0.047327
0.005306
0.038010
0.011582
0.084276
0.013005
0.077941
-0.002775
0.003347
-0.115689
0.005594
-0.005293
0.138366
0.104314
-0.139083
0.101399
-0.030176
-0.115271
0.045503
-0.107161
-0.007453
-0.057940
0.057089
-0.025707
-0.087482
-0.105179
-0.094904
-0.097491
0.077330
0.069205
0.043409
-0.059340
-0.093622
0.080653
0.082169
-0.066509
0.108949
0.040226
0.036141
-0.063946
0.066403
0.115703
-0.131097
0.105053
0.103716
0.005361
-0.005442
-0.014618
0.086785
-0.040468
-0.010613
-0.043162
-0.019279
0.044262
-0.135964
0.069182
0.028586
0.043645
-0.007461
-0.044388
-0.108009
0.133798
-0.135080
-0.094539
-0.066960
0.129773
-0.079750
-0.101434
-0.088597
0.079733
0.131390
0.131646
-0.037969
-0.130177
-0.080295
0.055334
0.072876
0.026249
0.029682
0.024638
0.130268
-0.019631
-0.082486
-0.113313
0.042576
0.049529
0.004347
0.075183
-0.135470
0.026024
0.121190
0.046056
-0.131097
0.070670
0.004731
-0.121498
-0.077067
-0.035329
0.113741
-0.114645
0.036113
-0.097215
0.065373
0.053863
0.119442
0.076862
0.083519
0.059397
0.137262
-0.113798
-0.058840
-0.100433
-0.071257
-0.026554
-0.127539
0.063811
0.090868
0.014126
0.058741
0.065569
0.006916
0.109514
0.038465
0.090329
0.079228
0.017101
-0.036707
-0.060566
0.017176
0.071286
-0.044270
0.071595
0.116048
-0.046607
-0.139450
-0.077871
-0.104991
0.019893
-0.135311
0.051176
-0.067200
0.053457
-0.004666
-0.032447
0.073571
-0.074529
0.098249
-0.120957
0.021816
0.072413
0.026971
-0.063897
-0.093775
-0.111545
-0.024166
0.020676
0.118862
0.036305
-0.024345
-0.039528
-0.033599
-0.009473
-0.057070
0.123028
-0.042889
0.002731
0.114533
0.073168
0.047787
0.095908
0.032799
0.114946
-0.003652
-0.038982
-0.013354
-0.079916
0.003680
0.066467
0.008396
0.084489
-0.078884
-0.103268
-0.111989
0.117931
-0.038147
0.116235
0.022969
-0.060740
0.005972
0.041785
0.092820
0.005871
-0.059332
0.120089
0.116239
-0.016023
0.109228
0.091528
-0.075579
0.109728
-0.049357
-0.028604
-0.100116
-0.105726
-0.043810
-0.089284
0.021410
-0.092677
0.037422
0.051275
-0.133731
0.108089
0.091615
0.041188
0.122918
0.066517
0.110575
0.096083
-0.096237
0.112705
-0.041886
0.025613
-0.030328
0.024592
-0.049204
-0.063423
-0.026357
-0.033690
0.002477
-0.070181
-0.053272
0.061448
0.086661
-0.094531
0.119785
0.103131
-0.043214
-0.102671
0.010354
0.093117
-0.079615
0.093032
-0.003241
-0.071288
0.002730
0.090153
-0.127639
0.096168
0.053352
-0.088557
-0.121897
0.057089
0.025718
-0.073859
0.106026
-0.094611
-0.100405
0.106415
0.052899
0.000689
-0.058109
0.090839
-0.081615
0.129323
-0.017105
-0.012041
-0.129274
0.058692
0.036061
-0.079811
-0.006643
-0.129892
0.125896
-0.035808
-0.040730
0.011776
0.101157
0.029729
-0.110451
0.127653
-0.102746
-0.108461
-0.101202
-0.051118
-0.111446
0.093776
-0.022409
0.051854
0.007982
0.030403
-0.088622
-0.062957
0.039453
-0.109457
-0.094881
-0.016621
-0.102498
0.047863
0.127001
-0.096400
0.056041
-0.058096
-0.025281
0.003812
-0.098999
-0.084347
-0.066272
-0.136663
0.014839
-0.134478
0.091382
0.122362
0.037651
-0.057513
-0.121011
0.103253
-0.043133
-0.107784
0.129647
-0.080676
0.109801
-0.050474
-0.073707
0.096006
-0.074122
-0.001341
0.078687
-0.023937
0.132508
0.077168
0.071040
-0.080667
0.009193
0.089278
0.027538
-0.104381
0.035927
-0.093674
0.137770
0.002066
-0.074417
-0.019715
0.096385
-0.023897
0.101757
0.109669
0.018451
-0.073303
0.120823
-0.001298
0.029418
0.057110
-0.006525
0.012397
0.092120
0.019716
-0.030239
-0.017860
-0.027647
0.024885
0.105964
0.008771
0.117076
-0.107018
0.116578
0.084675
-0.037738
0.001973
-0.083796
0.065957
-0.103872
-0.104119
-0.090051
-0.069268
-0.121690
-0.002131
0.061188
-0.038439
0.082033
-0.063675
0.137774
0.119622
-0.060309
-0.026559
-0.098847
-0.053354
-0.130533
0.014984
-0.117983
0.064405
0.024215
-0.011979
-0.043119
0.080407
0.033741
-0.121308
-0.015961
-0.014538
-0.119878
-0.085409
-0.003551
0.049389
0.100617
0.059337
0.058829
-0.024096
0.018915
0.091635
0.026813
-0.102423
0.045447
-0.014532
-0.118803
0.029166
0.032591
-0.105802
0.109325
0.007216
-0.106447
-0.083735
-0.065287
-0.005924
0.095019
-0.078999
-0.122004
-0.028889
0.012104
-0.079395
-0.066793
0.093137
0.096442
-0.122393
-0.094877
-0.006874
0.011121
-0.034273
0.132741
0.110022
-0.004424
0.028496
-0.032038
-0.138707
0.093117
0.094369
0.031957
0.042061
-0.065722
-0.049734
0.003071
0.046413
-0.009960
-0.067923
0.048682
-0.119955
0.103958
-0.030895
-0.060374
-0.024804
0.064281
0.131614
-0.134601
-0.091283
-0.106593
-0.052713
-0.007094
-0.116511
-0.018053
0.004182
0.069262
-0.018800
-0.071009
0.083448
0.101417
-0.004536
-0.059128
-0.103073
0.099217
0.107500
-0.042496
0.004320
0.031778
0.091751
0.123367
-0.077117
0.129644
0.019945
0.046055
-0.099891
-0.102991
0.129630
0.070195
-0.102618
0.035464
-0.012131
-0.083541
-0.028075
0.125268
-0.123833
-0.090159
-0.077015
0.118107
-0.130392
-0.039331
-0.124702
0.071763
-0.016800
-0.127253
-0.106924
-0.040652
0.033722
0.121239
0.138310
0.106922
0.031802
-0.060224
-0.135621
0.079491
-0.138350
0.021387
-0.080013
-0.028504
0.035707
-0.130450
-0.054395
0.084324
-0.088942
0.031161
-0.132577
-0.137649
0.031140
0.049957
-0.107781
0.006409
0.014988
0.090769
-0.038760
0.123924
0.009958
0.039304
-0.098136
0.078599
-0.086964
0.032231
-0.138083
0.062281
-0.110709
-0.120029
-0.055657
-0.046592
-0.101520
-0.112138
0.038822
0.125775
0.069566
0.046405
0.051192
-0.140108
-0.136240
0.068307
0.079963
0.120973
0.003678
-0.005691
-0.072403
0.096662
-0.071314
0.117511
-0.134687
-0.125913
-0.021470
0.099817
0.111060
-0.026250
0.104075
-0.031162
-0.065790
0.016776
-0.012822
0.091845
-0.121885
-0.038487
0.122235
-0.091186
0.036061
0.079829
-0.114249
-0.077498
0.064970
-0.130866
0.130238
0.025165
-0.035138
0.066712
0.119742
0.090678
-0.003957
0.054242
-0.118310
-0.036084
0.000795
-0.000956
-0.002694
-0.058426
0.067430
0.117627
0.061373
0.108014
-0.139468
-0.123078
-0.139683
-0.002532
-0.124712
0.126229
0.108199
-0.102621
-0.071016
0.090099
-0.059756
0.102828
0.039442
-0.019496
-0.059333
-0.112850
0.131846
-0.024729
0.043483
-0.111806
-0.035028
0.108393
0.003717
-0.039474
-0.110096
-0.058879
0.121118
-0.115077
-0.092474
0.096123
0.088614
-0.016725
-0.081648
-0.100476
-0.016006
-0.028576
-0.065039
0.050336
0.108785
-0.019993
-0.030581
-0.110234
0.125618
0.119348
0.124811
-0.117784
-0.096250
0.016015
0.054504
0.048565
-0.107529
-0.032012
-0.054383
-0.079487
-0.114720
-0.050664
-0.043698
-0.097219
-0.031621
-0.048027
-0.071915
0.110920
-0.131568
-0.019360
0.098645
0.083175
-0.037062
-0.118801
-0.098072
-0.066969
0.096864
0.020960
0.096398
0.059174
-0.054878
0.070469
0.114241
0.122142
0.094427
-0.070977
-0.013598
-0.077558
-0.050158
0.114484
0.027550
-0.109334
0.133240
0.020847
0.111591
0.103308
-0.125179
0.123182
0.034652
0.044170
-0.057373
0.117262
0.014564
0.083158
-0.118717
-0.054809
0.026072
-0.110659
-0.008678
0.127711
-0.078030
-0.116290
0.102742
-0.096040
-0.043064
0.131337
-0.056971
-0.119773
-0.115883
0.030936
0.014275
-0.030347
-0.079056
-0.129893
0.038816
-0.071876
-0.058474
0.019843
0.140164
0.064347
-0.123957
0.059111
-0.035201
-0.091244
-0.012561
0.081316
-0.029535
0.099788
0.057490
-0.117688
-0.049310
-0.103736
0.001459
0.049992
-0.045599
-0.006134
-0.063726
0.097399
0.086540
-0.105250
-0.005812
0.117786
0.106778
0.091918
-0.067691
-0.083900
0.012192
0.135294
-0.048793
-0.084392
-0.003125
0.084153
-0.028325
-0.128728
-0.035367
0.003899
0.004178
0.109032
-0.083879
-0.119360
-0.139928
0.134665
-0.075238
0.091148
-0.056610
-0.045690
-0.131079
-0.116459
-0.121350
-0.052743
0.059333
-0.020876
0.113279
-0.040790
-0.106198
0.095148
-0.121284
0.009803
0.068273
0.001357
0.065116
0.068961
-0.111548
-0.120934
-0.020221
-0.064671
-0.138396
-0.035353
0.056601
-0.117584
0.082425
-0.087187
-0.117880
-0.073918
-0.130929
0.052317
-0.040065
0.019263
0.004569
-0.121738
-0.056280
0.038620
-0.063975
0.026333
-0.093157
0.067011
-0.116314
-0.018663
-0.137419
0.016162
0.114979
0.026068
0.014628
0.051144
0.131188
-0.057179
-0.049884
-0.111676
0.067672
-0.066436
0.050979
0.122875
-0.128829
-0.007506
0.057434
0.061922
-0.126622
0.040017
0.123866
0.013063
0.128346
0.077882
-0.006910
0.056333
-0.077293
-0.028931
-0.124597
0.023198
-0.053022
-0.091451
0.020924
0.129472
0.045700
-0.037739
-0.006425
-0.033560
0.001980
-0.001822
0.034941
-0.064797
-0.026268
-0.009805
-0.018607
0.093689
0.050593
-0.121594
-0.083612
0.024113
-0.130528
-0.061285
-0.064575
0.017195
0.093614
0.086124
0.129663
0.048852
-0.017475
0.139734
-0.074531
-0.068202
-0.132615
-0.133284
0.115446
-0.102427
-0.062181
0.033972
0.085434
-0.010274
-0.002015
-0.047009
-0.001440
0.096082
-0.054126
0.111901
0.112843
-0.059987
-0.072474
0.098453
0.003807
-0.121980
-0.081711
-0.054045
-0.047187
-0.070868
-0.007784
-0.044966
-0.087552
0.120720
0.091072
-0.090844
-0.136206
-0.032040
-0.103228
0.047468
-0.082027
-0.018356
0.057467
0.028779
0.014547
-0.027373
0.032406
0.005117
-0.028274
-0.137070
0.116305
-0.087995
0.134348
0.107035
0.014098
0.068220
0.051895
0.073250
-0.099560
-0.052795
0.069118
-0.101671
-0.053383
0.026066
-0.016270
-0.101268
-0.093772
-0.036267
0.065526
-0.091250
0.020415
0.060454
-0.050996
-0.092342
-0.101057
-0.042415
0.015831
0.129028
0.042837
0.030029
0.061326
0.051906
0.023636
-0.064850
0.069715
-0.029289
0.125959
0.067256
0.109584
-0.003974
-0.134659
0.028027
0.116237
-0.073415
-0.105675
-0.012708
-0.042290
-0.124398
0.128116
0.129765
-0.085558
-0.132272
0.045012
0.037953
-0.106236
0.005843
0.011590
-0.052629
0.104084
0.063352
-0.085350
-0.099744
0.121542
0.134714
-0.077032
-0.098704
-0.116849
-0.083809
-0.012471
-0.124668
-0.084007
-0.107222
0.139033
-0.037021
-0.107949
-0.121761
0.091378
0.130715
-0.065927
-0.111657
-0.124491
0.118584
0.053899
-0.018781
-0.006665
0.116273
0.130999
-0.083495
0.034594
0.051143
-0.075116
-0.063975
0.017594
0.075439
-0.083211
-0.023325
-0.099171
0.045922
0.117667
0.091067
-0.039718
-0.011535
0.038026
-0.003317
0.011656
-0.082720
0.096133
-0.079546
-0.062624
0.132923
-0.057816
-0.086783
-0.106323
0.024932
-0.041294
0.136670
-0.027724
0.039607
-0.075501
0.032295
0.026071
-0.067387
-0.105991
0.025925
0.074137
-0.125463
0.104872
-0.046657
-0.132547
0.101212
-0.092950
-0.091876
0.059248
0.062616
-0.101977
0.089134
0.093656
-0.089453
-0.019583
0.121842
0.054460
0.018854
0.060457
-0.018995
0.077405
-0.047415
-0.083626
-0.024508
-0.023921
-0.053215
-0.030443
-0.024238
0.016802
0.006552
0.129147
0.032457
0.049134
-0.136639
-0.012802
0.106584
-0.123731
-0.055941
0.075576
0.045224
-0.051984
-0.094471
0.042273
0.072404
-0.118666
0.104844
-0.103005
-0.013534
-0.104993
-0.041020
0.131343
0.134798
0.125857
0.104162
-0.046036
-0.027368
-0.129798
0.126044
0.006420
-0.036602
-0.050356
0.087735
-0.115344
0.062295
0.134468
0.100026
-0.133104
0.117201
-0.043232
-0.069753
0.122807
-0.010832
-0.083670
-0.085599
-0.066787
0.070593
-0.002544
-0.092153
-0.109978
-0.051579
0.107118
-0.064882
-0.039359
0.020520
0.002632
-0.055690
-0.063475
0.048670
0.110000
0.047879
0.018264
0.011729
-0.011943
-0.114211
0.088573
-0.104551
0.130477
-0.115069
0.058483
0.026641
0.125679
-0.012271
-0.124975
-0.063323
0.042147
-0.085986
0.102710
0.003206
-0.053737
-0.072354
0.039394
-0.012743
-0.046283
-0.113866
0.088626
-0.080194
-0.083303
0.130348
-0.133721
0.093444
-0.110435
-0.100153
-0.008912
-0.024673
-0.001764
0.049091
0.027501
-0.126327
0.116125
-0.026827
0.064756
0.105573
0.028387
0.073801
-0.082897
-0.042291
0.017424
0.119026
-0.125485
-0.093753
-0.000041
-0.027464
-0.005920
0.094476
0.010063
0.074616
-0.057701
0.051744
0.077837
0.027302
0.076526
-0.101542
-0.037195
-0.097160
0.044718
0.027900
0.034051
-0.100515
-0.012159
-0.028661
-0.020533
-0.048639
0.114460
0.116016
0.047738
0.024957
0.062605
-0.085757
-0.029015
-0.023338
-0.039042
0.056173
0.059463
-0.138468
-0.025327
-0.019422
0.020102
-0.005342
0.129472
-0.061296
-0.124512
0.016762
0.065661
0.115819
-0.081576
0.111648
-0.123566
0.019481
-0.124697
-0.104605
0.002622
0.073556
0.039796
0.031789
-0.003353
0.066812
0.099595
0.071375
0.119155
-0.048949
0.066671
-0.072498
-0.076189
0.024394
0.067218
-0.014443
0.101694
0.049297
-0.019229
0.067186
0.120513
0.118260
0.067058
0.092431
-0.027018
-0.067027
0.010983
-0.049397
-0.000877
-0.010184
-0.090173
-0.082122
-0.068451
0.016491
-0.133591
-0.021691
-0.101712
0.015120
0.076407
-0.069763
0.073168
-0.119622
0.127813
0.118482
-0.037818
-0.091112
0.040124
0.085504
-0.062175
-0.087665
-0.112536
-0.009548
0.108410
-0.015566
-0.098473
-0.108090
0.132460
-0.098964
-0.071596
0.123938
-0.026767
-0.048440
-0.102733
-0.126858
0.004255
0.003273
0.112846
0.122432
0.079615
-0.014734
0.037795
-0.009184
-0.113857
0.016341
0.010423
0.095091
-0.137354
0.048959
0.055085
0.118262
-0.128128
0.131492
-0.009690
0.049859
0.042865
-0.120784
-0.065035
0.118755
0.024369
0.048011
0.101192
-0.015701
0.045606
0.121689
0.088439
0.073524
-0.125923
-0.009260
0.030422
-0.046753
-0.041635
-0.089981
-0.094060
0.060354
-0.126900
0.113800
0.003491
0.068761
0.016462
0.052408
-0.099680
-0.114855
0.103882
0.022534
-0.024485
0.062907
-0.054608
0.102625
-0.045228
-0.075515
-0.090001
-0.011478
-0.009954
0.074471
-0.109612
-0.109851
-0.130478
0.051947
-0.096190
0.123691
-0.130615
-0.132938
0.066483
0.041606
-0.061677
-0.110075
0.051743
0.118206
-0.054942
0.109465
-0.013811
-0.111460
0.061181
-0.084434
0.012858
-0.030042
0.090712
0.045611
0.090473
0.095071
0.025402
-0.111546
-0.006404
0.123103
0.085356
0.062393
0.130800
-0.031330
-0.138361
-0.128634
0.096327
0.108931
-0.128479
-0.132269
-0.016468
-0.110384
-0.070392
0.085261
0.112290
0.106890
0.100841
-0.114944
-0.055757
0.018982
0.006163
0.072064
-0.134028
-0.070155
-0.002364
0.071430
0.040484
-0.034504
-0.100258
0.008288
0.112358
0.073745
0.065146
-0.112859
0.034712
-0.005981
0.074456
-0.048142
0.026898
-0.107208
0.054392
0.023152
-0.078054
0.006578
0.079447
0.127053
-0.050978
0.110106
0.096057
-0.038975
-0.099546
-0.036523
0.004895
-0.112448
-0.084133
0.063801
-0.026264
-0.124886
0.130284
-0.005810
-0.041451
-0.049346
0.068129
0.134002
0.015721
0.086087
-0.109397
0.054390
-0.037353
-0.059664
-0.029554
-0.043289
0.028364
0.020796
0.008008
0.061062
-0.009154
-0.051794
0.034017
0.047515
0.051539
0.049249
0.080843
0.018278
-0.029410
-0.064796
-0.127968
-0.007110
-0.073397
0.023009
0.134137
-0.068336
-0.042410
0.099295
0.008235
0.076763
0.047192
0.031563
-0.085687
-0.095123
-0.059916
0.017847
-0.057603
-0.043291
0.047790
0.131611
-0.071704
0.117633
-0.000224
-0.127694
-0.046417
-0.113391
0.027736
-0.029421
0.134820
0.059645
-0.099747
0.045493
-0.132047
0.096199
0.001363
0.128449
-0.077632
-0.135723
-0.078844
0.009336
0.015708
0.071573
-0.041866
0.032264
0.006262
-0.105295
0.111009
0.077752
-0.089316
0.032747
-0.121433
-0.006459
0.112248
0.064801
0.082696
-0.102439
0.009305
0.119615
-0.090411
-0.097699
0.125052
0.049055
0.038521
-0.101571
0.100193
-0.060702
0.088970
-0.044546
0.095290
-0.020502
0.085396
-0.098996
0.101813
-0.012510
-0.044077
0.030455
0.025456
-0.055605
-0.119737
0.060057
-0.095943
0.043056
-0.064290
-0.133786
-0.011360
-0.102058
-0.084990
0.016949
0.026371
-0.020125
0.109886
-0.056525
0.028620
-0.029642
-0.093878
0.004966
0.102775
-0.100833
0.042760
0.085075
-0.039662
0.114201
-0.003523
0.020702
0.045297
-0.049750
-0.103801
0.010709
-0.050696
-0.129634
-0.104518
-0.093066
-0.000501
-0.081655
-0.026704
0.132691
-0.011708
0.069407
0.014554
0.009517
0.114380
-0.006008
0.027906
-0.049669
0.125172
-0.108429
0.067855
0.116149
-0.079822
0.066832
-0.027216
-0.013159
-0.118884
0.117675
-0.139429
-0.120367
-0.045274
-0.033618
0.036074
-0.045740
0.096077
0.000714
-0.110770
-0.036033
-0.037336
-0.021888
-0.104105
0.002550
-0.081200
-0.006447
-0.039893
-0.037698
-0.009761
-0.000495
0.054602
0.024337
0.067131
-0.136988
-0.108831
0.024254
0.054869
0.011874
-0.100533
-0.011206
0.045588
-0.072907
0.004853
0.066219
0.114509
0.053189
-0.085325
-0.076513
0.048407
0.074912
-0.043952
-0.053206
-0.021158
0.085334
0.023418
0.007883
0.078071
0.047099
-0.067078
-0.120106
0.033730
-0.028516
-0.030070
-0.064134
0.020274
-0.084383
-0.096271
-0.000995
0.072133
-0.129132
0.023216
-0.078546
0.110744
-0.068452
0.065618
0.075205
-0.035337
-0.094801
0.023668
-0.051554
0.044521
0.106211
-0.100171
-0.020834
0.027508
0.121637
0.070187
0.116564
0.092326
-0.015015
-0.090612
0.065718
0.109401
0.116351
-0.001336
-0.037285
-0.068215
-0.130224
0.108538
0.131311
-0.006737
0.010958
-0.133170
0.081390
0.134755
0.076321
-0.013630
-0.003538
0.067870
0.007967
-0.098049
0.095301
-0.137957
0.115609
0.017390
0.096973
-0.005845
-0.036804
-0.005703
-0.069380
-0.064560
0.132466
-0.109273
-0.004830
-0.054070
-0.113506
-0.014508
-0.074359
0.047285
-0.070450
0.000925
-0.098092
-0.076090
-0.050676
-0.056456
0.064637
0.134449
-0.010513
0.027688
-0.051256
0.093184
0.130414
0.024557
0.061792
0.093743
0.104686
-0.083257
0.124331
0.033964
-0.013353
-0.079482
-0.125213
-0.133906
0.081538
0.074160
-0.024379
0.094994
-0.008942
0.040170
-0.086727
0.026675
0.106407
0.138402
0.130163
-0.138145
-0.096842
0.082979
0.045993
0.133916
0.103955
-0.126942
0.016095
-0.076237
0.018481
-0.045944
-0.108054
-0.008617
-0.031335
-0.014902
0.096797
-0.115177
0.051671
-0.086105
-0.032045
-0.092999
0.012204
-0.063719
0.059106
0.073942
0.133695
0.109152
-0.027604
-0.004848
0.068236
-0.107318
0.063361
0.047604
0.026673
0.101512
-0.041646
0.138291
0.075035
-0.118801
0.112874
0.051785
0.054307
-0.135936
-0.101074
-0.014578
0.037532
0.003490
-0.092387
0.041469
-0.096084
0.112996
-0.121127
-0.068586
-0.107412
-0.015480
-0.079601
-0.003146
-0.108086
-0.041617
-0.056559
0.086584
0.114259
-0.025805
0.018656
0.114238
-0.124175
0.134598
0.102462
-0.022433
-0.022497
-0.101172
-0.082804
-0.094364
-0.077520
0.113165
0.079208
0.038001
-0.113787
0.103915
-0.020965
-0.136448
0.135647
0.136648
-0.088605
-0.127944
0.063051
0.135767
-0.072994
-0.031543
0.007622
-0.057008
-0.027508
0.027615
0.110990
0.034527
-0.073934
0.103240
0.113240
0.112445
-0.011389
0.090511
0.125020
-0.063534
0.029829
-0.006299
0.055037
0.112520
0.040833
-0.134080
-0.097216
0.031624
0.088216
0.058957
-0.108968
0.002302
0.014865
0.137004
0.095830
0.078374
-0.030875
-0.107491
-0.112270
-0.100223
-0.041580
-0.041138
-0.123797
0.115251
200 31
0.061674
0.044645
0.068859
0.061978
-0.029026
-0.068723
-0.022523
-0.041098
0.038866
0.012496
0.022201
-0.068298
-0.009621
0.052322
-0.057198
-0.010440
-0.067668
0.025420
0.022860
-0.024621
0.054045
0.006959
-0.045051
0.015330
-0.045703
-0.005632
-0.047772
-0.070319
0.000567
-0.066381
-0.050655
0.052851
-0.012961
0.006620
0.025001
-0.003188
-0.017908
-0.004953
0.002246
0.008642
0.069869
0.055675
0.069086
-0.049150
0.042657
0.011011
-0.012165
-0.051844
-0.005281
0.016397
0.062049
-0.053083
0.017731
-0.014459
0.055745
0.053908
-0.020376
0.021295
0.018239
-0.011070
-0.033332
0.028201
-0.017867
0.039888
-0.060856
0.004309
0.038497
-0.050509
0.029488
0.006105
-0.026823
0.027307
-0.034026
0.024635
-0.049580
0.055447
-0.006940
-0.059428
-0.056084
0.030647
0.049045
-0.051278
-0.001307
0.024257
0.003351
-0.045034
0.029372
0.014097
0.015784
-0.005235
-0.027923
-0.008663
0.003855
-0.020948
0.066744
0.006256
0.046784
0.017828
0.011995
0.022292
-0.009130
-0.007181
-0.032613
-0.070594
0.002247
-0.039002
0.006052
-0.025141
-0.053401
-0.038834
-0.070461
0.064500
-0.031800
-0.068965
-0.045529
0.069554
-0.038058
0.068971
0.043124
0.063729
-0.063212
0.012407
0.004644
-0.043406
0.030573
0.028445
0.069292
0.005280
0.008594
0.046519
-0.068731
0.033130
-0.006493
-0.013636
-0.075467
-0.032676
0.044117
-0.016603
0.060881
0.001238
-0.006851
0.010298
-0.063948
-0.019139
-0.057105
0.049620
0.001309
-0.040329
0.039151
-0.007820
0.002898
-0.050598
-0.047956
0.057079
-0.059146
-0.063247
-0.060728
-0.036827
-0.000744
-0.057189
-0.061808
0.023868
-0.047472
0.068909
-0.060404
-0.034620
-0.040959
-0.001586
-0.036125
-0.050747
0.055423
0.037280
0.056246
-0.036629
0.033391
-0.065383
-0.060746
-0.014320
0.008157
-0.016828
0.071493
-0.021647
-0.052274
-0.010863
-0.009444
0.039904
0.053064
-0.010610
-0.034087
0.033246
0.028154
0.036344
-0.015440
-0.013508
-0.040232
0.020465
-0.044372
-0.015628
-0.022298
0.059759
0.025766
0.075708
-0.042907
0.014503
0.073608
-0.040842
-0.005640
0.039893
-0.064575
-0.044682
-0.001330
-0.021696
0.044870
0.028684
-0.041324
0.066314
-0.060139
-0.041564
-0.030092
-0.055403
0.015087
-0.043170
-0.037462
0.000348
-0.045938
0.038497
-0.051762
-0.047642
-0.048045
-0.050314
0.051754
-0.028212
0.005293
0.006752
0.059040
0.063513
0.018242
-0.003303
0.057533
0.004218
0.023631
-0.049670
-0.010461
-0.042243
0.025182
0.033497
0.040405
-0.011479
0.000342
0.009194
0.037625
-0.053759
0.018317
-0.042878
-0.048018
-0.009763
-0.053365
0.026984
-0.057965
-0.000212
-0.023856
-0.059579
-0.054226
-0.037163
0.023470
0.004094
0.002863
0.018230
0.062520
-0.024857
0.042225
0.025691
-0.004117
-0.027980
0.023550
0.032345
-0.058243
0.017954
-0.063988
-0.006638
0.000248
0.017790
0.022456
0.069011
0.026668
0.043734
0.010421
0.007789
-0.000728
0.015234
0.040185
-0.044245
-0.054900
0.012397
-0.036615
0.028205
-0.028116
-0.034311
-0.028861
-0.010866
0.058744
-0.067481
-0.010993
0.010426
-0.030431
0.018565
-0.065988
0.004673
-0.065561
-0.046551
0.016288
-0.023274
-0.032564
-0.043833
0.044828
-0.054990
-0.023858
-0.039497
-0.014799
-0.047203
-0.018990
-0.040408
-0.064690
0.011224
0.023184
-0.008390
0.052017
